[[[-0.0009250918396784383, 0.0007727610367364475, -0.0009210771121703654, 0.0004130844603993422, 0.0009346015828712606, -0.0016521018068468263, 0.0003354858351283125, 0.0004946587555133469, 0.000714022188679986, -0.0011071414709842022, -0.0014029150375431917, -0.0014235657739606223, -0.0010551000801171978, 0.0015828728623841787, 0.0021221528685371046, 0.0011373013312559444], [-0.00020883115032617, -0.0004448415436627978, -0.0009253411907277647, 0.0007939036595139474, 0.0011027764497866185, 0.000474620350477735, -0.0005111862170714964, 0.0009358491458885365, -0.0009744802464281828, 0.00041009975730222395, 0.00047813592870844557, 0.0005092449724447104, 0.0010094780454051589, 0.0014240010176227854, -0.0015818529683007396, 0.0008876751971664546], [0.0014230080000440322, 0.0006315478043515857, 5.1535339581627046e-05, -0.000502189493796722, 0.000750311585254712, -0.0007696287112928871, 0.001365894928753283, -0.0007475800440072195, 0.001181553699096603, 0.0005043450297979051, 0.0007763622636919423, -0.0015629192965415956, -0.0009530827165753107, 0.0007218408224406957, 0.00029525315193871875, 0.00018501759298385158], [0.00044587861981931255, -0.000908867628381376, -0.0016019121477630904, -0.0005704735821534243, -0.001044274664554379, 0.0013309762796789107, 0.0011389317304019064, -0.001691105545100709, -0.0004466869680836, -0.0012247105852796615, -0.0004158420859854321, 0.0015667585920159978, -0.0012331513968503716, -0.0005635929887186196, -0.00025558913603357364, 0.001655220997271915], [-0.0011567620769147341, 0.0009591725821438482, 0.0009258990486550857, -0.0007457062132726093, -0.0008072404340995491, 0.000736688581411548, 0.0008153558497936462, -0.0013171102640007488, -0.0008081619672412548, 0.0014845985638124685, 0.0010066177323354727, 0.0013192727104765515, -0.001672481963873839, -0.000560462323336294, 0.00011353317913298767, 0.001255654592681366], [-0.0002663834177796919, -0.0003597643330717871, 0.0013654509599126782, 0.0006895263955433793, 0.00044859631889997034, -0.0016228018344668182, 0.0011576623944372603, 0.00048166808287792185, -0.0007363193587634813, 0.0005018080480098483, -0.0007491686193901215, -0.0010522873116573673, 0.0007380694647384923, -0.0007780484660656861, -0.00010805097639184462, 0.000606045661768848], [0.00017436719224367585, 0.0013740884186716964, 0.0008222483912251435, -0.0007030677587042094, -0.001166821633598949, -0.0012399185755964661, -0.00036633356111262706, 0.0011499615157145647, -0.0015420423640352418, 0.0008118960050182971, -0.00041882693473538086, 0.0007293700144926053, 0.0001270830097078027, 0.0007650058386240111, -0.0013883600580265984, 0.000677405338346449], [-0.001357120331704211, -0.0006184350248653404, 0.001692256497466533, -0.0016199837939582927, 0.0009458839524701849, 0.00010531325272990702, -0.0006832907030305316, -0.0008286315843672922, 0.0008880324556676197, 0.0012037582270431196, 0.0004301333630662484, -0.0013641018759545799, 0.0010469886557162517, 0.0015885596715862346, -0.00043621839664804616, -0.001511829921290953], [-0.0011323789417215344, 0.00030940145349560907, -0.0004309137153363283, -0.0010056283866475147, 0.001335801427325711, -0.0003817342760686378, 5.32361529578647e-05, 0.0007856926232098721, 0.0006340776130797498, -0.0005228003321576608, 0.0009871472671620922, -0.0005315273366362103, -0.0011776235922015816, 0.0011910929876602387, 0.00012577768231357309, -0.0005748161182360028], [0.0007959639155752453, -0.0013254929745336022, 0.0011163377265236854, -0.0007400907431110778, -0.0004308878540371768, -0.0007919005385026716, 0.0003686508740993906, -0.0008547609750367137, 0.0008160546611331628, -0.0004709917629643637, 0.0010030836645228583, 0.0010073204065869808, 0.0006233263251463932, -0.0011616358513840215, -0.0007793005297451288, 0.0008794850283726669], [0.0004250781368927515, 0.0012103843029179903, -0.0011741672244816623, 0.00011916004654043552, 0.00022084253264042416, -0.00046858151968329903, -0.00020994376836236771, 0.0014010671543519477, -0.0013336471256862777, 0.0008896487908637568, 0.001486820182905382, -0.0002536464058951784, 0.002393684234247127, -0.0007996778469257908, 0.0014467825880082597, -0.0009678232825137586], [-0.000991786730734076, 0.0013507040996005362, 0.0013833771560271713, 0.0001895036629722978, 0.0014390856776554436, 0.00019366587702829212, 0.0020345635105679352, 0.00128097200645364, -0.0003068217329877818, 0.0003638136574841484, 0.0007858276570273132, 0.0006732501859508371, 0.001351814770811002, -0.0009182840955138227, 0.0004327406605767078, 0.0006717906401993285], [-0.00036433008189515434, 0.000994494174811048, 0.0007736357941390402, 0.0014938074504471821, -0.0015257912611082297, 0.0006524423262454383, 0.0006932411351424292, -0.0004211255836864418, -0.0005211141138504304, 0.0013467687065008673, 0.00048203571004144764, -0.0007633286661073718, -0.000942462908198532, 0.00038368375957708066, 0.0005272823303019578, -0.0005656837063414932], [-0.0003464149682692768, -0.0016893772050561833, 5.8009632987086926e-05, -0.0003069836704939392, -0.0013869441051669936, -0.000493430972077181, 0.0013472480253648284, 0.0006030259865528832, 0.000514773726323186, -0.00019459017271212744, -0.0016389527717508006, -0.0006832939156177784, -0.0007523455898718434, 0.0008054153701423469, 0.0006493836758229786, -0.0004488564363279715], [0.0006132405580443618, 0.00022577920263469142, -0.0010838377490778306, 0.0003721414962036071, 0.000580308284753681, 0.0010235306036187838, -0.000829004389962985, -0.0004801203622848017, -0.001050096777201207, -0.0004574200255242792, -0.0007877796546956045, 0.0015072134002729726, 0.0005732818969420306, 0.0010441910680842493, 0.000407721079491366, -0.0006019993343215266], [0.0009712517126561033, 0.001237133942955056, 0.0017600033018296383, 0.0009077408026639047, -0.0010530214002983456, -0.0010068433634974362, 0.001314521987265329, 0.002182019068770782, 0.0017285766383005117, -0.00015811155167941345, 0.0009506276779123567, -0.0003044674396600607, 0.0008736194558723894, 0.00045891386775466953, 0.0004084619588115964, -0.0007201161583649459], [0.001472333188420266, 0.0012824385141690586, -0.0007964212409435394, 0.0005389992401839301, -0.000954193496872381, 0.00010359959385834256, 6.78973676873442e-05, -0.0013012016414646257, 0.0007343639803451976, 0.0006765585684610992, 0.0009189428706768265, 0.0006655465363925839, -0.00035736610840107964, 0.0014996926645943827, 0.0005296130266330528, 0.000700927378586144], [-0.0006544974203045903, -0.0008034667561811277, 0.0003623380198032261, -0.0006336283693875373, 0.0004697500812407626, 0.0009073202689567559, 0.0007782081032745556, 0.0005278168074673, -0.0020425654673412856, 0.0010539581082854399, 0.00029712515887206093, 0.0013977182909232554, -0.0006675922439521762, -0.0017344946541549202, -0.000470752460859407, -0.00046125739737210394], [0.00039373546726329493, -0.0006448744912924656, -0.00065191146987108, 0.0008112333181421084, -0.0010485625184571549, -0.0007568312270187348, -0.0008869313948205701, -0.0011512373207374239, 0.001169269384722956, 0.00024071754041245038, 0.00048154717744803557, -0.0003624609060296507, 0.0011034681257101298, 0.0009020708325466544, 0.0009108178310840049, -0.0009876123474019025], [0.00020550135002928984, -0.001029682117657966, 0.0009495160955889806, 0.0003269442264517677, -0.0015910041535984042, -0.0005618144252543624, 0.0011001168271142026, -0.0013863767655102996, 0.0002868436334513991, -5.519605243335173e-05, 0.0011986578995172258, 0.000361342604547036, 0.001768632760911785, -0.0002394805291814381, 0.0012088832423848526, 0.0003858435099400049], [0.0003578101350041904, -0.0008193937643043918, 0.0006217760435565597, -0.0005444336863590311, -0.0012427417279443113, 0.0010016994208391266, 0.001280015160409194, -0.00048608864503800844, 0.0008838007561565802, 0.0011944607143177853, -0.0006870418030787791, 0.001531261081359079, -0.00028885187334252017, 0.0009046884868431402, 0.0007911452270612265, -8.570223516418099e-05], [-0.0006821731709197383, 0.0016962747510836781, 0.00034998870229051705, 0.0009540364761823876, 0.0010520335116423385, 0.0007083798957810973, -0.000813142071243306, -0.0016415746391064236, -0.0007642685876316841, -0.0009582362764139027, 0.0007804464228230303, -0.0014170668115610753, 0.00016436263457283052, 0.001683134506677676, -0.0010203201908411006, -0.0012223014521321812], [-0.00034113087766623335, 0.0013549595548272607, -0.0011554544153423282, 0.0009191098282687069, -0.0013048172889654059, -0.0012741341019101781, -0.00048285997436844745, 0.0014377873639368451, 0.001076254009367192, 0.0009536323529299475, 0.0010148124175722462, 0.0009963294060395386, -0.00059439920707868, -0.0010603727262220354, 8.947559406537196e-05, -0.0009280728651476551], [0.0002486335016330974, -0.0014319723082361815, 0.0009252974619279845, -0.00031261884008275447, 0.0008832034084744621, 0.0005243008080212943, 0.0010033083409052791, -0.0017347484056443904, 0.0005748438923474075, -0.0010391218089540538, -0.0007382684168883113, 0.0011252614014679253, 0.001029665673310105, -0.0017267310566600168, 0.0005719640129772162, 0.00103331074898492], [0.0006928344105677629, -0.0006371329481152292, 0.00020033879670598086, 0.0010658817725146524, 0.0011316948841867593, -0.000780070056908339, -0.0007194850408174374, -0.00041993286844456423, -0.0010219519414968773, -0.0005551091693517641, -0.0005352978733363376, -0.0007300963013018012, -0.0009926804978120762, -0.000790096805265002, -0.0014699805069608408, -0.0013098028926512395], [-0.0007917683086464727, 0.00017964248328419065, -0.0011476986431758756, -0.0005520997119336568, 0.0007294317890697957, 0.00046551903296496904, 0.0013486451195821748, 0.0011506882246699315, 0.0013303380501286028, 0.0016901961433724551, 0.001215036046368656, 0.000636162895877676, 0.00023583371681698187, 0.001080712146525164, 0.0017286291944894868, -0.0006176588651602193], [-0.0006162633353619286, -0.0008572301009362729, 0.0010389745893370742, 0.000546332256132065, -0.000797600897337346, 0.000619605764007428, 0.0015940519727662614, 0.0014918030962887093, -0.0010335596565495704, 0.0005048288519284452, -0.00035374689801567435, -0.0007282265265218438, 0.0017146062291137647, 0.0017670153429534751, 0.0007706475697998003, 0.001578748122282989], [0.000753637552498424, 0.0008534078317495307, -0.0010525927211046395, -0.0005953080128728569, 0.0002700093850439934, 0.0016189580020410737, -0.0010239771790868637, -0.0012024744465382762, 0.0005132716952321898, -0.0007570907986757732, -0.0011280923050998497, 0.0008259581960903735, 0.00048129962190911603, -0.0006736888429095604, -0.0006038973051612715, 0.0004884664962604046], [-0.0009823269769005268, 0.0010655720029530372, 0.0011306787995130295, 0.001514124844483298, -0.0006604621835391724, 0.0006165907033329773, 0.00020175502788363892, 0.00042091281905853645, 0.0017251163334975066, 0.0013320881233550182, -0.00104441689087042, 0.0005671631202276646, -0.0011171849319650629, -0.0007644612443246369, 0.0007443144305238432, -0.0011488097469018982], [-0.0011432546176806853, 0.0012068513156472602, -0.0014718994279340257, -0.001039938658979965, -0.002073685292413783, -0.0006652903245035658, -0.0001410538802260718, -0.0003288128804586018, -0.0002632181458185641, -0.0007714175641406273, 0.0005324284666313678, -0.0010511259641476478, -0.0014046361479626715, -0.0006704747264617296, 0.0009179222393681856, 0.0007667718732300102], [-0.0009881857245399408, -0.001262332158259159, 0.0009890909414050485, -0.0007344519263031322, -0.0009279796050189633, 0.0014001428195870673, -0.0010820997822287815, -0.0006295605088913147, 0.0009934864970736943, -0.0005095033892116237, 0.0005914969251314553, 0.0009330138035177651, 0.0011656446724705408, 0.0006004570941715405, -0.00043525434828566397, -0.0007749190084547077], [-0.0007510828742521203, 0.000964912786752179, 0.0010552657978853048, -0.0005009797177685681, -0.0005658951465223484, 0.0010195978902825355, -0.0003314989884554475, 0.00042729312527149156, 0.0007451904976029849, -0.0012309610215032688, -0.0012517651502225004, -0.001232375773096017, 0.00018121342294418754, -0.0007365007921118028, -0.0006278304873464437, -0.002219320241910996], [-0.0010096867385474709, -0.0002690794733973224, 0.002154535145090353, -0.0008579965485988591, -0.0024217226177199757, 0.0011731364295046185, 0.0011987207650600152, 0.000797726263959278, 0.001002561053261092, 0.00043134286970415475, 0.0005106895432982898, -0.0006339053062508705, 0.0006968702342347958, -0.00019112092636008565, -0.002259681614794672, 0.0008800268363198088], [-0.00035288456921704994, -0.0005265129178050194, -0.0009522877289309188, -0.000507773789055922, -0.0007992540146856966, 0.0012101051192613635, -0.00043838172224469683, 0.0008898006005024614, 0.000857782621060701, -0.0007311624855259897, -0.0002921692857382687, -0.0007303975078670458, 0.0011561303371386007, -0.00027428341649709723, 0.0008516215203478319, 0.0005971090776893383], [0.0009349125588169145, 0.0007461547006893746, 0.0005674986825043169, 0.001413087708012347, 0.00094641878976061, -0.000439662641776802, -0.0007036805911654062, 0.0007589585742113623, -0.0012475965938198677, -0.0007430321505953494, 0.001105683369576642, 0.000987720666608051, 0.0003412297623133815, 0.001634972165839597, -0.0009088984186930407, 0.0013219709494543257], [-0.0004556215759294991, -0.0002973125403152085, -0.0009826848327448283, -0.001578260110555003, 0.0006874556483976633, 0.0006451345951685386, 0.0010500203400539952, 0.0010806834824346597, -0.00020166423402273711, -0.0008334166880823486, 0.00037239993630929175, -0.0005137103759910922, -0.000920412137703983, 0.0022542720105324563, 0.0015900063300835884, -0.0005499472354413048], [-0.0009870850431817552, -0.0022471469974169904, 0.0019042383131367387, -0.0008449789309812447, -0.0007758004226232337, 0.0003214037993846141, 0.0012447009316139547, -0.00016146904611922389, 0.0002799057072852587, 0.0007133124239917865, -0.0015311955784101535, 0.001327431452823433, 0.0013657738186497, -0.0007607441670843568, -0.0010176341209772012, 0.001510318119578083], [-0.0005801048959424695, 0.00017939526414888435, 0.002340952097362871, -0.0015906183322807394, 0.00015343876587445507, 0.0013576833831707522, -0.000226233005264312, -0.002260676578889822, -0.0009590406888013739, -0.0004886938317176558, 0.0005210330116912382, -0.001193617079369111, 0.0007772430113061161, -0.0012489659500337087, 0.001965269737198091, 0.0005800056807249823], [0.0005882379257488934, 0.0008567821334145298, 0.00012750754130453292, -0.0010207308740340533, -0.0011131566317705175, -0.0017942427253221163, 0.0011122359437382092, 0.000543656847255185, -0.0006682634172305368, 0.0012767408844968136, 0.001265264826102764, 0.0015332443668434961, -0.00032399923962031046, -0.0007665856669227457, 0.001172437713415038, 0.0004517246286027213], [0.00020967668328138273, 0.0009599351061947544, -0.001811414596299658, 0.00015700019380801892, 0.0007432146184661716, -0.0015903881339540448, 0.00022207709623506093, 0.0006229751381320628, -0.0006306639655069927, -0.0003641570488305351, 0.000662419352469525, 0.0004219854742871326, 0.0008211473121566334, 0.001170251940662447, -0.0012890677627682217, -0.0008836992949822484], [-0.0010777846760911434, -0.0005409949308480489, -0.0005314368495154532, -0.00019053719282272738, 0.0006894387623257106, 0.0008659712593902505, 0.0009373195062913062, 0.0008371903326513971, 0.0014784025036032322, -0.0010325321512842719, -0.0012873276036587523, -0.0014910274652603947, 0.0008758654069407431, -0.0007215081645624576, -0.0009671997768754051, -0.0017275889448541857], [0.0007083742977928651, 0.00030863224653455957, 0.0006418548459584814, -0.0014201711578048233, -0.00024031938949940488, 0.001240386121275998, 0.0006098920322369506, -0.0008988597478824003, 0.002265835809770924, 0.0004467506146485719, -0.0014292035360847215, 0.0003260483552338579, -0.0006064359721334576, -0.0005727223234582346, -0.0009272799368838021, 0.0014105037367876051], [-0.0010428934879917872, -0.001679237450756049, 0.0018653659675730262, -0.0007624844114394746, 0.0004486294041605249, 0.0011935311548403136, -5.134671185202148e-05, -0.0008703810177805057, -0.0007839029204968061, 0.0011485838564840795, 0.0010047441144885292, -0.001282062342681626, 0.0005571718981134369, -0.0006793857648592372, 0.0012598173477827547, 0.00095658898618205], [-0.0007065703561964756, 0.0008409403914208791, -0.0003210450977994022, 0.0009709448315385, -0.0018725114422328284, 0.0010988441878217522, 0.0007480827973344661, -0.0007700309370098486, 0.00026403463122566995, 0.0008053597597969833, 0.0019610189816542042, -0.00025251691555808236, -0.0013863270242161759, -0.00225771292430188, 0.0007602484512747194, 0.0017996827581564156], [0.0004249502525471797, 0.0014310788516857188, -0.0008332396838105979, 0.0011296907551144124, 0.0006551891468198819, -0.0013464714991765442, 0.0005258517023945047, 0.0005585609271423017, 0.0012572922636013629, 0.0005998290251740154, -0.0008553739833280569, -0.0006377543310814046, 0.000903254472863652, -0.0005580211005849156, 0.0010422497938872553, 0.0007821216653612989], [0.0009970156726584617, -0.0008581614577897389, -0.0012149732270224608, -0.0006209346689718608, -0.0012261340278112436, -0.0018961373737780755, -0.00040839772242032193, 0.00119667690781521, -0.00042224122619427155, -0.0019528478816166323, 0.0009767093606413662, 0.0005610946819430691, 0.0003578156625684948, -0.0003634055441848618, 0.0004683981973806524, 0.00030939831647460787], [0.00020846563010765428, -0.00021451861930004727, -0.0008848203031915996, -0.0011327678788173147, 0.001284210548542342, -0.0011697146514443916, -0.0016321016157305798, 0.0006206884358319495, -0.001374435709998542, -0.0007577285508598283, 0.0013762143728383574, 0.0007656428674834682, -0.0005729146340754151, -0.0009760274318304673, -0.000696330125669123, 0.0003325719944138733], [0.0002312285528890613, -0.00046720987415508686, 0.0012226971726354435, 0.0017461270062522093, 0.00045853512864712365, -0.0006680255805144261, -0.0009478267716878522, -0.0007010927917832869, -0.0012148913491715195, -0.0011401431135536634, -0.001481795835855035, 0.0009424580709323702, 0.00011481229123659373, 0.001626579893076261, 0.0008443253820256297, 0.0011806451169520079], [-0.0011928582048168267, 0.0009636662377625813, 0.0015827429402198213, 0.0008626596950912959, 0.0003064766644076871, -0.001680740175517653, 0.0006115597091804278, -0.0015438578037992544, -0.0007412237817748741, -0.0011255237852008258, 0.0006878386631591689, -0.0003542365953548112, 0.0009866394012021677, 0.0005977938055643212, -0.0006755345256543518, -0.000852321061437227], [0.0010187054206782526, -0.0013083395140639023, 0.0010948120736828143, -0.0016425782753655234, 0.001424979109148517, -0.000169865058253134, -0.0004634056310081744, -0.0015437738050820518, -0.0005545586898391751, -0.0004542919848789836, 0.00043430047457661427, -0.0009969172486497028, -0.001028737925729846, 0.0014354773208006234, -0.0007310715835810957, -0.0010230810647065313], [0.0008828687763078307, 0.0005467407948284196, 0.00039797646976315787, 0.000917934225718057, 0.0007891183131903194, 0.0009772256780407685, -0.0006453079335706146, -0.00020108198997570851, 0.0006220628709506363, 0.000876508770205236, 0.0008602968383299585, 0.001108565466850293, 0.00014549184232582, 0.0014319818413768102, 0.0011814922511930136, 0.0012161409101570525], [0.00045563417597806866, 0.00034616863494041236, 0.0003916815793376991, 0.0015292651194116977, -0.0006761083668695246, -0.0006448390111216073, 0.001217819847816525, -0.0004943541441744119, 0.000737405451581542, 0.0009091768895178528, -0.0021505748342101633, -0.0006063729984036459, -0.000993947099359954, 0.0006766106642507742, 0.0005259273309692739, -0.00040299653141283786], [0.0003300476998039125, 0.00082257433411673, -0.0011955756459005663, -0.0012429566160235264, 0.001492401908988081, -0.0015460851986638078, 0.0006342296908964173, -0.0006104132547425083, 0.0008809306935293133, 0.00010798950210730136, 0.00035986396882928175, 0.0006704672870314782, -0.0006799108835379595, -0.0004784674857852058, -0.0007313204730022357, -0.0012257176342267261], [0.0011514645084210507, 0.0014427686444562376, -0.0017246181388133972, -0.0008343210307740717, -0.0009629860288953756, 0.0011186279544569881, -0.0014277258523285189, 0.0009050456950065206, 0.0012775790087112295, 0.0009462057712209222, -0.0007579278176144096, -0.00035092453866052896, -0.00013842159715277635, -0.0011930720937456372, -0.0007533023138960201, 0.0017806491091873194], [-0.0003758862641582587, 0.0006063215436199051, 0.0005897089627980006, -0.0007181481754778014, -0.0018056763403168192, -0.0017717822276974947, -0.0011304478923528864, 0.0007433677990137941, -0.0018817833054949604, -0.0015882375517535902, 0.0007869487005315542, 0.001401285224711006, -0.00048028188174498415, 0.0006027837003797712, -0.0005180987374824024, -0.0011169259839512683], [-0.0007827123008477611, 0.0008827184841461505, 0.0006822985451381042, -0.0010321053189411768, -0.001096721516383124, 0.0007863821555027848, 0.00023061413996071286, 0.0011986628028887436, 0.0011295790329369493, -4.078395343876376e-05, 0.0008064750767825214, -0.0008042781985080666, -0.0008220459744037323, 0.0010752460353924565, -0.0009036051529548216, -0.001885283143159064], [-0.001963438263182063, -0.0009218838009418547, -0.0007107946364831865, 0.0010480998227013077, -0.0007303660884900175, 0.0008161813912012063, -0.002134429238169296, -0.000580519308633382, 0.00025251374621532185, 0.0001983527352736126, -0.0009022719077313445, -0.001876853915893879, -0.0008481858404394635, -0.0009461283491568304, -0.0006805136195584939, -0.0006086729439342081], [-0.000685226539372723, -0.0007159328028418029, -0.00035649521129406804, -0.0006568467360594984, 0.0007998920202735977, -0.0006844870264819944, -0.0008503677432722646, 0.00036399968584440123, -0.0009543381171983982, -0.00027940931731372585, 0.0014542563488214992, -0.0006931209395219996, -0.001506866283944251, -0.0003278944102517001, -0.0015222841338704551, 0.0015543325522454166], [-0.0005745929643551576, 0.0010507385019302693, -0.0014431738874886477, 0.001372482444152336, -0.0014098412947858815, 0.0017201299897270767, -0.0014024215570452958, 0.0006156828812701128, -0.0005390566739113435, 0.0008368205958407584, 0.0009190043944381182, -0.000597938625813949, -0.0006740751734499912, -9.025170737097438e-05, 0.000334103501302602, -0.0009569811356815618], [-0.0007988432306520815, -0.0011919910665305878, 0.00041168800087675793, -0.0003564950237767086, -0.0012281946629130102, -0.00044038775207068886, -0.0008386667018720338, -0.0006912434035941346, 0.0007971956360832652, -0.0010234938623407519, 0.0006642904995517275, 0.0011576210830275815, -0.0004674761039422514, 0.0003140927988730673, 0.0012629883297556271, -0.00046100396244061796], [0.0009022314617900112, -0.0016012169918909317, 0.0009600352649047037, -0.0012559110849654194, -0.00133021085401059, -0.0010714111232046264, -0.0009275488195680345, 0.001042580062309573, -0.0016127198596327214, 0.0007103157906459418, 0.0010758941727878153, 0.001405748075169668, 0.001788064149542264, -0.0005994691545347198, -0.0005577420271849192, 0.0008665036389634676], [-0.0016873970920281722, -0.0011323409124795718, -0.00010263807928580255, -0.0004900328810406106, -0.0005580673326704242, 0.0005323303881888859, 0.0009731785226840843, 0.0006262750540691667, 0.0006739106787166777, 0.0008807337225001117, -0.0023023550710178247, -0.0014761666107860891, 0.0006718231156234688, -0.0014746226419964216, 0.00045465935058556194, 0.0006394369877198568], [0.0010775460662045323, 0.00031498653701096934, -0.0014325497494657416, 0.00029757226688041075, -0.000602596471383783, 0.0010640617513972253, 0.0006449644897136655, 0.0014432409169682606, -0.0008522717927920647, -0.0012464304947344034, -0.00017515571862066785, -0.001114459915928864, 0.0012906361086401613, 0.0018175728977735978, -0.00142266968031602, -0.00035749045328387866], [0.0014053340579205506, -0.0012741523301766568, -0.0008608722723568082, -0.0013313202868432876, 0.00047170360441782007, -0.0011124948700967023, 0.0006537368178836589, -0.0008165389231364608, 0.000534601697352704, -5.339530939571835e-05, 0.0009403986089478201, 0.0008712333993596773, 0.0004335371656060451, 0.000691043852363824, 0.000998789523148678, 0.0004902433766923681], [0.00031958006463023544, -0.00034430208374619845, -0.0012633548431554035, -0.0008395257020654863, 0.00012679287625914681, 0.0005549447823507651, 0.0001301221692703382, 0.0004331462205000324, -0.000608077837798247, 0.0010871451492850464, -0.0010460230880139287, -0.0020308490557000795, 0.00016774550280418353, 0.0005096037660455551, -0.001758593786277535, -0.0006283049261370425], [0.001165684277928908, -0.0008852699377140272, 0.0007543535135761479, -0.00086900490610509, 0.0015755431830084138, 0.0009673994294252694, 0.0007704216851665294, 0.00169864099217555, 0.0010763047073000542, 0.002574601398521677, -0.00019053355153813051, 0.0006717976487465548, 0.0001659674268385663, -0.0016481144901998913, 0.0008133689127025831, 0.0005159186902261363], [0.0007633542800858286, -0.0010037568627285943, -0.0009662229867110954, -0.0006790468880897264, 0.0009402706575237187, -0.0004636880790416522, -0.0003583033339507543, 0.001259738601278248, 0.0005931279942282512, 0.00012984730559068206, 0.0006568016303359514, -0.0014483746685729829, 0.0008240542734606954, 0.0010033578990922014, -0.0009083498218389785, 0.0014679765487699906], [-0.0004091956042753068, 0.0012202870944198409, -0.0007352258766942143, 0.0005330564687834624, -0.0021270963798951394, 0.0006716297026773298, -0.0012924782849167186, 0.0012029269871123996, 0.0005675895682633582, 0.00035892504355169226, 0.00032318965591494214, -0.0003421565788516792, -0.0007646045390669488, -0.0016511594671950753, 0.000263719181464291, 0.0015037706088822315], [-0.000974339830627668, -0.0001958128910145364, -0.000904927646061801, 0.00041428385962653726, -0.0009783214341319716, -0.0004315989655047323, 0.00042610200467833203, -0.0007689718188581463, -0.001002329562259888, 0.001259680499807627, 0.001693796517664889, 0.0012007733889709614, -0.0010253226640454377, 0.0012888308350394006, -0.00044062542560425533, -0.0007558587710362914], [0.00024212918919745767, -0.0009353543667986911, -0.0009765900380583365, -0.001035777931385824, 0.0011775182443279663, 0.001202013561111228, -0.0005310053206573187, 0.0008675903380710231, -0.00026108966915466554, -0.0012266560435246817, 0.0014913456213207317, -0.0010782335608585172, -0.0003032974848780678, 0.0005319949814409121, 0.0006011421262770161, -0.00021473129916795326], [-0.0010891077110821996, -0.0005946395197032447, -0.0003529554483449688, -0.0019724200681308698, -0.0005898301295907652, 0.0007526095390854543, 0.00032825680080411337, -0.0010376738956043405, 0.00010292571539853869, -0.0008337722675427066, 0.0011938345914141025, 0.000793587652967385, -0.0005412130967881231, 0.0011424612592567612, 7.182365470174328e-05, -0.00045899981929861693], [0.0007825831400805363, 0.0011356185798175045, -0.00030774458004172574, 0.0005669225501701199, 0.0007204010896015455, 0.0005797610434608731, 0.0004636236608543144, 0.0006445041754609848, 0.0006080277079749496, -0.0008439534231718845, 0.00031390674502667005, 0.0012504991841956782, -0.0014822164072580074, -0.0011922791442521433, 0.0010501461749059758, -0.0003657565823070499], [-0.0006180347782837034, 0.0005599544359382341, 0.001353713934203047, -0.0009389868529153955, -0.0008433788280715114, 0.0002133554805078425, 0.0012417050436745686, -0.0002172877383150704, 0.0002657815355542208, 0.001560194060893452, -0.0002806049542879237, -0.0013491879552920995, -0.001251178231442358, 0.001507503760593717, -0.0004491851435879396, 0.0016167371727779734], [0.0008161270447730676, -0.0009623315564208534, 0.0010266511288990086, -0.0004951848552573526, -0.0004800098015484204, -0.00042732781473502844, -0.0006178344034751384, 0.0006070447291178643, 0.000524798061792477, -0.0015818124702530888, -0.0007673843794847899, -0.0012171637868601966, -0.000595106280292289, 0.0014671827889345766, 0.002151391056638591, -0.0009565566052176127], [-0.0005510781414430002, 0.0009599806136827248, -0.0009760042217667506, -0.001713878967828542, -0.00044583255286798404, -0.00015743601170293918, -0.0005990667184792395, -0.00029193738680666675, -0.0013621277963961477, -0.0008241103520044039, 0.0008352639126445717, 0.00044835087885342106, -0.001572930266417345, 0.0005532007361027275, 0.0002854754417371903, -0.000126120515305661], [-0.00036644981851333423, 0.0010569450575107823, 0.0006366779852478458, -0.001285339307179014, 0.0008071759279273066, -0.00045622270686686365, -0.00011486798979741632, -0.0012840175878944743, -0.0012119164429695258, -0.0006478659323229388, -0.0013810334755440207, -0.0016124238129179072, 0.0007716397535049616, -0.001733061326051791, -0.0007257661292536952, 0.0019699473920248805], [0.0011879698552032026, -0.0014116963079688163, -0.0004070080961286447, -0.0009624288927074167, 0.0003262168733585508, -0.001466633904886528, -0.0007952156661488169, 0.0010261495404178022, -0.002037067838395026, -0.00020353024490051856, -0.0014117269632255406, -0.0016670944022638256, -0.0018275608012646386, -0.0011274405420251292, 0.0007375410651429697, 0.0014213632581253632], [0.00035569072298090407, -0.0005014299129670534, 0.0011566429545886354, -0.0009131531597820605, 0.0002686894728567698, 0.0012362855820378382, -0.0016168837875156076, -1.1137169896379023e-05, 0.0003612722116493198, -0.0006680737167049133, 0.0005789472616545086, -0.0007754490418223551, -0.00039114709960905034, -0.0007460454311877626, 0.0006037326913356296, -0.0007246716521717239], [0.0007722950817745266, -0.0006027844758728428, 0.0019903449830094067, 0.0010215661387558438, 0.0010428867776723005, -0.0008764026573417084, 0.001463791298593576, -0.00031182838007706183, 0.0020415764553093738, 0.0009379409682217879, -0.0005154177253176602, -0.001486712720346686, -0.0005374195507865224, -0.0003171752912415679, -0.0004976599115761417, 0.0009171162683538449], [0.0011165644275375319, -0.00022104627862893904, 0.0005961357898043413, -0.0005552401703940127, -0.000670654808766984, 0.0012206461270067295, 0.0001675249970529856, 0.0010407941084468288, -0.0016581465663632001, 0.0011616991511215226, 0.0005523763209391658, 0.0006922624651549047, 0.0009643538677779649, -0.0002936543357195579, 0.0007612697399343358, 0.0018261712674826473], [-0.0009381351980971756, 0.0009676496036595229, 0.0007242941848829018, -0.0007533658370685475, 0.0006771907197782754, 0.0016820851652324745, -0.0008881549761460307, -0.0018485549078971215, -0.0015219375918460452, 0.0012910528395148684, -0.0004919381327439298, 0.0006434661826188203, -0.001078986034581495, 0.0014246372786481734, -0.0002826338271426794, -0.0008854731837018636], [0.0011520547336079548, 0.0012151800868576933, 0.001247764135202807, 0.0012773536442570123, 0.0015208884287166377, 0.001441249753599872, -0.0009964818106546777, -0.0011194915210673163, -0.00034614116920713583, 0.00027457658846027563, 0.0004804933518796203, 0.0005596188701738636, -0.001704481688369048, -0.0006151914991728934, 0.001455827572371321, 0.0011798889422115115], [-0.0004774488655907217, -0.0012002531951598443, -0.0007790027259064868, 0.001601202762782382, -0.0006218872063399554, 0.0007293553214537329, 0.0012146367623874993, -0.0009288027706465289, -0.00034948447567740914, 0.0004681999204483633, 0.0005657843978969693, -0.00018007032127918967, 0.00037546887048751275, 0.0017961866456592188, 0.0009753056962771932, 0.0009080946179860825], [0.0010962252076638103, -0.0010009629162745534, 0.0008330625336119451, -0.0010246000683522799, 0.0008687643763532437, 0.0002762434219256079, 0.0015544795880445739, 0.001301148964830149, -0.0009258497486345397, -0.0008303929579173281, 0.0010016409644969045, -0.0007534450201349488, 0.001583894203413676, 0.0005148847105261552, 0.0009097577697477152, -0.0015929651477104283], [-0.0006824679158587668, 0.0009306173808098019, 0.0013776400778504807, -0.0009273739129798004, 0.0016869033747965022, 0.0019793320832845367, 0.0006850911399765831, -0.0012304073181866658, 0.0006282631941815862, 0.0007947751112171597, -0.0005952567822473965, 0.000835667025824739, 0.001414744000786048, 0.00044810198907168714, -0.0014954497698145461, -0.00043896679965530036], [-0.0015219642187765368, -0.00039815520956695404, 0.0009253431325224092, 0.0011372984981043103, -0.0004573676362094519, 0.00023511283114649616, 0.0012458965632789493, -0.0003848578380896842, 0.001383425349937435, -0.0010315780000752987, 0.00118834250545323, -0.0003748580341662731, 0.00107673875173399, -0.0012968675583179964, -0.0004916205465339893, 0.00052004527749975], [-0.0007155010351754821, -0.000709323360921831, 0.0010843924826974887, 0.0010852787485757277, 0.0010962244767446024, 0.0010592809578906445, -0.0009681037784416427, 0.0006193329980676933, -0.0007502544840014, 0.0008377350451483638, -0.0003219336224682339, 0.0012057020119073212, 0.0009354462386817081, -0.0014566602764238218, -0.001413533380382495, -0.0015135978117413872], [0.0006796088146019634, 0.00030829818771111156, -0.00028866661189341623, -0.0014740740598822915, -0.0008867319349119242, 0.0003372426343476307, 0.0008331195225879884, 0.0013028355278689435, 0.0008547978637170216, -0.00014460496407166825, 0.000781380633985382, -0.0010268457184772887, -0.0010291801986218126, 0.0002809007520129618, 0.0014962146141565974, -0.0002005699542311216], [0.0012262741953243269, 0.0013394507151765617, -0.0007778825756368449, -0.0003599762905301197, 0.0007655739024531649, -0.0009460552323744616, 0.0013633029749599535, -0.0008795360941999432, -0.001417491886599586, 0.0003877471664977798, -0.0003225658519240651, 0.0009932151573081088, -0.0008895101875430253, -0.0010021210826426032, 0.000612171064199048, -0.0003381098150170964], [0.0013865440645863798, -0.001137396806127132, -0.0004286223904315984, 0.000262942355846606, -0.0006163516361104277, -0.0008565408898699241, -0.0007991585337765821, 0.0005601267577773121, 0.000647657834691582, 0.000809685249631888, 0.0017485187466398523, -0.0006282459594038081, 0.0002591374161070608, -0.0008791829657736888, -0.0008616812111579739, -0.00022227238194123456], [0.0004972069566277751, 0.00022314745695783012, -0.0012398172724441287, -0.0004834931271393142, -0.00041726053377482065, 0.00063236291783315, -0.000362381237329384, -0.0011003654654093164, -0.0007066972126759723, -0.0015025331462043758, -0.0002850925351141576, -0.0006843500401671668, -0.00011429314665694364, 0.0004833889343968675, 0.0011359679749229528, 0.001136734194760838], [0.000668429191814761, 0.0010853178840303874, 0.00023398091320650283, 0.0012037912130404076, -0.0007530401497012457, -0.0007322125133935406, -0.0007812553825068026, 0.0004063805314327673, -0.0006390354463012807, 0.0005593291038351111, 0.00025307200297473994, 0.00020749888685088944, -0.0014417483282721734, -0.0005411787315526031, -0.0005655936485535021, 0.000690274915162507], [0.00043202332184959094, -0.0005100838430461925, -0.0007502412366917401, -0.0010291595785145325, -0.0007552096314731729, 0.0014894368934097579, 0.00025664884440383705, 0.00037102560552221606, -0.0013592907112507074, 0.0012189858226708105, -0.0011388457100112899, 0.001278087737768383, -0.0004170485187389318, 0.0004280541966899354, 0.0010120353035760496, 0.0002945783702077443], [0.001180422031467981, 0.0006353962426652444, 0.000981754653813682, 0.0007986838446960382, 0.0002932290301544444, -0.0013261420173390744, -0.000522721080456562, -0.0017329072406567206, -0.0003682062827874261, 0.001060914205085526, -0.0009019724148559096, 0.0010070105306272496, -0.0008562915926757762, 0.000517838803083923, 0.0013098519553476201, 0.000982543228447965], [-0.0007580465105508419, 0.0008380897825792204, -0.00039162738024673316, -0.0001001915762590627, 0.001220466107867357, 0.0003980734093139868, 0.0006781676148846625, -0.0005832112717882874, -0.0005085914564502473, -0.0006803618152494635, -0.00015856293516391124, -0.0011894210029045492, -0.000882985736967402, -0.0011167034991596185, -0.0011168901807795853, 0.0009524544343529144], [-0.0011887577673415529, 0.0003478224053159753, 0.0004364201429141239, 0.0007393849358156981, 0.0019660367165508057, -0.0005534168593727197, -0.0005482940620017602, -0.0014184733054025394, -0.000412891402833752, 0.001082448093409952, -5.1393958500744406e-05, 0.0011767783207316264, -0.0008146186930199324, -0.00196227879091109, 0.001278910977276335, 0.0008273503046864147], [0.0003430434031548143, 0.0011414451636299241, 0.0009318133496926383, 0.00033355510562341044, 0.0015608500167619338, 0.00024354241223533245, -0.0011843765446181178, -0.0009903586138501523, 0.0019027822632627785, -0.0011952193016319828, 0.000749938213443458, -0.0002978669097729252, 0.0004530414024225251, 0.00027113226226281725, 0.0024254295984359126, 0.0008712487447927129], [0.0006592162133043011, 0.000983399858925185, -0.00037163737508930176, 0.0014605331914693495, 0.001977994367205944, -0.0005573183608267218, 0.0005868848638272171, -0.0009938319270612445, -0.00014596910743370895, 0.00025127604365498147, 0.0010447754026918987, -0.0006209593005001538, -0.0007233761984559241, 0.0006175139664345992, 0.0004464123063402007, -0.0003556003765099328], [-0.00041054906920460344, 0.0007097466520346465, -0.0006637451265150915, -0.0005323101628115435, 0.0003967287657368694, 0.00146461742558881, 0.001117441575844024, 0.00021394431905791614, -0.0015248787025195186, 0.0002572033477591354, -0.0008355141955834765, -0.00012465073618895693, -0.0005167385022137106, -0.001368537368042826, -0.0005083919568910667, 0.0001811275019425376], [-0.000621158429202012, 0.001336745495990597, -0.0011187704884435652, 0.00104783145521554, 0.0009585353935494126, -0.0008362925254189283, 0.0004497756399446697, -0.000522877282276158, 0.0008263740474131265, 0.0018712774586432015, 0.0008191705641773546, -0.0005121346598065371, 0.0002398591832300367, -0.0016654570764296297, 0.0011739124377127142, 0.0010448476013668626], [0.001209214321268862, -0.0013027819455192753, -0.00022177207510247775, -0.00040366981818421705, -4.895680733679365e-05, -0.0003897197676073948, -0.0013612422747680624, 0.0002615783829979172, 0.0009820141174406924, 0.0003875095525229894, 0.000320738032207113, 0.0017897595280701353, 0.0012883432387146374, 0.0006942158655169402, -0.0011022176105465922, -0.0018037771403579398], [0.0008357132542121775, -0.0008984627031421057, -0.0005710724876478609, 0.0006092518323053104, -0.0006605683115369112, 0.000845796225635912, 0.0008216095134534831, 0.001024516332850329, 0.0011669739671876654, -0.000502005558385008, -0.0003469109856767317, 0.0005856967700019988, -0.0006458171764361509, 0.0006580703110699189, 0.0006166767194151702, 0.0012196627489485094], [-0.0007661719117817195, -0.000506560803321286, -0.00024124404694063012, 0.0016360191697541483, -0.0018237526198065198, 0.0008220090573391948, 0.0016539703697571826, -0.0005158300161434187, -0.000785100547564365, 0.00083496176164953, -0.000992178905281232, -0.0013006895127929043, -0.00026725804748433394, -0.001053822877613881, 0.0007576373116711604, -0.0008787137741383526], [-0.0011741248235650082, 0.0009904750532029826, -0.0010760928059672414, -0.00040472305503683295, 0.0016316709345344177, -0.0016366840394044316, 0.0013800898644395299, -0.0011735222696526192, 0.0009951319191462019, -0.001254211825932489, 0.00011438683728165926, 0.000288881497444355, 0.0005277962520475535, 0.00026222956850966437, 0.0018587008204753465, 0.0011040819073857729], [0.0014183049797037509, 0.0016029751143298305, -0.0009434530941201514, 0.0005149005825802595, -0.0019974396415128647, 0.0008929271419244008, 9.229870958738819e-05, -0.0008489962457274209, -0.0005944137772847782, 0.000871143443535348, 0.0006016585079415583, -0.0006084129080683956, 0.0007678120324497958, -0.0007535074159294834, -0.0006080851116137918, 0.0010823118792276135], [0.0010726321879551356, -0.0009296674150109795, 0.0008360167910060087, 0.0004971100922703188, -0.001598478574307492, -0.001182045479343958, 0.001368555807064467, 0.0009603077924558833, 0.0006846333153090893, 0.0012960119079698852, 0.0008002083382241106, 0.0002507542372421805, -0.0007667924543217909, 0.0001856838236092618, 0.0013118852314119498, -0.0015173189276393008], [0.0003611723514902839, 0.0009377539772910462, 0.0013092078840176702, -0.0006465660376137888, 0.0005854057984723623, -0.0005367874930164751, 0.0006982858912698888, -0.0004045590782136693, -0.0007923701974292677, 0.0004325104221697979, -0.0008862330996873457, -0.0005762272648936542, 0.0014855790331401082, 0.0014530336851618453, 0.00032818715055171397, -0.0006903846235200395], [-0.0010836576454129401, 0.0004765486795827318, 0.0006500084769833004, 9.230125917068458e-05, 0.00024584418793640467, 0.0005791164459131999, -0.0007469043790312777, 0.0010225427501415996, -0.0008486634947187633, 0.0013112447214294319, 0.0006186329194866975, -0.0011081499726267657, -0.0013358913802556023, -0.0008061100891892442, 0.0016819348533542923, 0.0006803230145536113], [-0.0003961988709850285, 0.0010804425979545635, -0.0009223236938985603, -0.00018087734689555386, -0.00017835213749034705, 0.000987769813165647, -0.0002450114311694206, 0.0005533778018155475, -0.0005612705695465655, 0.0005594777434889208, 0.0010342709765612424, 0.0006619188248207716, -0.000341802010193491, -0.001693341591823548, 0.0008437715273818897, -0.001223244902871813], [0.001445185515653142, -0.0005218473747567797, -0.0006854831832903131, 0.0006409440525293548, 0.0005066471374777985, 0.001479655298619276, -0.0010537458564423977, 0.00027415373010862364, -0.0009711668396615625, 0.0001388745567877166, 0.0007952375269783522, 0.0010298630936432136, -0.0003631207849770308, 0.0012451385092706717, -0.0006277411016321462, -0.0017006231614396371], [-0.0006036373463332703, -0.0016485779638480145, -0.001043947924339792, 0.0017620569338978142, -0.001540754772416269, -0.0005420011384539893, 0.0015037229991436475, -0.0009802541198861473, -0.0005217450019242096, 0.0011273427616310988, -0.0015153153059736405, 0.0007831509485415458, -0.0004754196211738749, -0.0006899967259527339, -0.00031092949170884486, -0.0009289012475875539], [0.0014895900633558556, 0.0005842350886261047, -0.0013895562249179923, -0.00021034608876727495, 0.0008191425633136553, 0.0008645314674198361, 0.0008415618906943568, 0.0013899185713524076, -0.00017672801638011327, -0.0008513754866650202, 0.000529512963127204, -0.0007684092674911715, -0.0014801831589977648, -0.001059936339092024, -0.0009657916903932504, 0.0003992257130276281], [-6.63377676869366e-05, -0.0004150478346766374, -0.0006814868169738651, 0.0009076081423701041, 0.0005855837185063344, 0.0004915239312054294, -0.00036600312037682765, -0.0006639925264653326, -0.0010271839528135068, -0.0008861352405889414, 0.0007619699703192653, 0.0013000680195848064, 0.001576049566856759, -0.0009610221319556261, 0.0011282277537363271, -0.0008788236338730141], [8.146251101929799e-05, 0.001140190230128839, 0.0006122440686603071, -0.0017012089362869898, 0.001102816838150054, 0.0010410693883590233, -0.0005971226699547381, 0.0008834910274002147, 0.000993593424039423, 0.0012590067950453505, -0.001416255154329873, -0.001622753804519578, 0.0009517831214928795, -0.0009109961852939875, -0.0006137643721806112, 0.0006273983586062814], [-0.00037165554954232026, -0.0009569898925959406, 0.0011950968089661518, 0.001481570341239534, -0.0006759310739938083, -0.0008180526436440478, -0.0013210156892212227, 0.0004192394145969078, -0.0007122568106213036, 0.0009128887981821449, 0.0006673811455925704, -0.00048382014826784027, 0.0007621706176873317, -0.0008428398520671278, -0.0009965099263220588, -0.00015559403950906938], [0.0007714250372004911, 0.0011534530180473312, -0.002459054868629583, -0.0005593779662415155, -0.0008661002776522943, -0.00039714246153174334, 0.00024044223710663787, -0.0015467464227440064, 0.001039655787142193, 0.001413244034129459, 0.0011844166652886807, -0.0007677312320974151, 0.0013230468022930693, 0.0012982862433466066, -0.0010255979583054433, -0.0008660696608899496], [0.002170578528633916, 0.0018578353802959342, -0.0008723370806683724, -0.0009138759414906981, 0.00074282202756603, -0.0005544859522259284, 0.0010128114100446488, -0.0012536996583831046, 0.0013231128225420546, 0.0008106641629873297, -0.0007682650724347204, 0.0003927944771165114, 0.0010032995546343634, 0.0016735652557815384, -0.0029809684102475053, -0.0008981878440251226], [-0.0013274080375800241, 0.000563406757848801, -0.0013358419491769533, 0.0006224245207113744, -0.0003070890231535148, 0.00022550416678619376, -0.0009718251870298702, 0.0008661990650647724, -0.0002124679991813101, 5.820989995603872e-05, -0.0012817834934335686, 0.0009210702364427, -0.0009202107485952632, 0.001100051853360588, -0.0007284243002843403, 0.00037836057750711787], [0.0007885108758617935, 0.0007877487052124904, -0.0015158516875398269, -0.0004560868945071629, 0.000649783057935575, 0.0005822849765511166, 0.000867132144403661, 0.001325835332637702, 0.002309448537203326, -0.0009058239802559144, -0.00028390567439163166, -0.001076828149403643, -0.0005119586768634144, -0.0004476622118779349, 0.0005585151104285766, -0.0020597124308900706], [0.0005287219495154045, -0.001498117479449266, 0.0008102396955696683, -0.001071800478857043, -0.00023711302024195303, 0.0010590215789224235, -0.0012401486089357312, 0.0005016549474947909, 0.0018248725509186308, 0.0002620090310736267, 0.0013532360105867074, -0.0015694406399139901, -0.0005781576072568679, -0.0018231450506128826, 0.0012634168485424332, 0.0007801862515073591], [-0.0010950567031166604, 0.0016954743598555223, -0.0009108141952934558, 0.00032812525325077275, -0.001175258329386333, 0.0007892121927593173, -0.0005363536978156957, -0.001584495622077998, 0.0013156491681967262, -0.0014971000718684373, 0.0003646709721017952, 0.0011279685342542093, -0.00010547416816450821, 0.0005039793334331254, -0.0010310779419094645, -0.0009371247358930991], [0.0012927601822465718, 0.0005498263153119293, 0.0005514032954712176, 0.0015848153259294337, 0.0006446009661865927, 0.0005042487887918324, -0.0009465897472850518, 0.0009423494670655678, 0.0010584981244786361, 0.0013530910073531197, -0.00030473014689277005, -0.0017502770482700242, -0.0001010229427757059, -0.0004523771594652292, -0.0012220982678464378, 0.000767520906795467], [0.0015102949342731598, 0.0005211703491876412, -0.0005722025381329337, 0.001413487245156969, 0.00150800882150354, -0.00042230978491125437, 0.0006440748988168146, -0.0007749684429328376, -0.00045190922847300377, -0.0011738374401208211, 0.000846105650057779, 0.0009055879574226628, -0.0008935341876476975, -0.00046676040162015384, 0.001960694422981062, -0.001117825880099071], [0.0003028219629049697, -0.0011489251413352743, 0.00047707238130002214, -0.0015680891284294456, -0.0006520834574339165, -0.0006311918618923381, 0.0002539755629316962, -0.0007439844376013281, -0.0008417516350782124, -0.00038165186393626736, 0.0007346489440400309, 0.0004612149058560704, 0.0007516548927709981, 0.0007075814566522894, 0.0006873213477571943, 0.001230174551351153], [-0.001017361625434383, -0.0006307105561496244, 0.0012104626254494015, 0.002084121388326762, 0.0008805704332801335, -0.0012931898278634663, -0.00022514071676378182, 0.0012389033062742767, -0.0011678922499788911, -0.00040320191075695933, -0.0014782785770789595, -0.0005730696938503559, 0.0010690674940421554, -0.001011425972809145, -0.0022603957627645613, -0.000428408521836088], [0.0007501731296762691, -7.318209509297382e-05, 0.001406444405022859, 0.0009838935675436555, -0.00044526218342318406, -0.0007558706983297342, 0.00012789062356403263, 0.00158604371504281, -0.0007179696904746593, 0.0002787939435323785, 0.0003257785663358139, 0.00031620679933088867, -0.0007510083756383049, -0.00027057239541421375, 0.0012085219904057949, -0.001563159927222755], [0.00043148534177432516, -0.0010384262808590735, -0.0011315258929188745, 0.0007479901943540866, 0.0011857542557580083, 0.00048503154335864494, -0.0008391607949500889, -0.001423802140678702, -0.0004808287361053699, -0.000765278357299463, -0.001154122621431455, -0.0016629024404985907, 0.0003290195495315828, -0.00023451908836491313, -0.00018749739698018626, 0.0013253072377579494], [0.0007283088878694923, -0.0008563373487193441, -0.0007879242708314434, -0.0004012943723818772, 0.000701569239154073, -0.0010495155767343066, 0.001364866578472739, 0.000882528063887783, 0.0007873650037947187, 0.0003383679768089028, -0.0017739553698876986, -0.0008337919192276397, 0.0009521661752075224, -0.0011058576044232246, -0.0011165015050366648, 0.0009104029140993584], [-0.0008051863631208923, -0.0005493861008772629, -0.0005166455259268019, 0.0012104308439961462, 0.0007634769264599064, -0.0005225119455951095, -0.0011435455707382183, 0.0007325542329778427, 0.00037653553077169325, 0.0002993575217433212, 0.001594285706198243, -0.0002735684493379503, -0.000720949058602388, -0.0007206255854987597, 0.0011583628731405993, 0.0002666872197563117], [0.0013236479068795576, 0.0006900320966115168, -0.0010930549120915707, 0.001515688331267741, -0.0005128090341371334, -0.0006892111058038078, 0.0009987192746702183, 0.0009894770807271848, 0.0005296278834984244, -0.0008292353950962623, 0.0002338994626987539, -0.001166769353758824, -0.0013100626638167182, 0.0011040931331320427, -0.0005430507075457628, 0.0008606454995223142], [-0.001924134216482669, -0.0013002951543907499, 0.001518845451019558, 0.00047685010485141994, -0.0012679021825396197, 0.0008129646535599526, 0.0005279171337633186, -0.0004974595460779952, -0.0008337813616207651, 0.0009167811538135668, 0.0010903276822525959, -0.0007404987972436519, 0.001292056886450173, -0.0009125549932799221, -0.0010391673740702372, 0.001402681335035133], [0.0007738740738229799, -0.0007001902903218339, -0.0002081512257191798, 0.0009901539475340945, -0.000590880824358024, -0.00025925994418725255, -0.0003782568739256202, 0.0005513048245313998, -0.0008572100933447854, 0.000673589600906482, 0.00048568510655951346, -0.0005984134850469511, -0.00045883363540266084, -0.0008104554930249936, -0.00031074388468167556, -0.0008995480238117036], [-8.508681160739176e-05, -0.0003399465752678865, -0.0017052356041634094, 0.0011887444172229405, 0.0005422777982044826, -0.000314728551056012, -0.0012877534282541368, 0.00021817899229129774, 0.000969343582827774, -0.00015867107804971904, 0.00038149829210148056, -0.000626106699410157, -0.0011107554587554236, 0.000536984842330203, -0.0005787452270375799, -0.0006200730304019369], [0.0007619064737037083, -0.0003130646107905478, 0.0011297714593289337, -0.0006357506081879829, 0.0009315198218848379, 0.0006568516604632351, 0.0016659937675369578, 0.00126429637021165, -0.0010217359794353256, -0.0012087580524912398, 0.001432165391321861, -0.0011783999969144268, -0.0010822313599835808, -0.0008012498014248694, -0.0001878012039901686, -0.000720110421612147], [0.0006715954687724336, -0.0021993478791365578, -0.0008381808005442967, -0.00107448738566828, 0.0008241686932038549, -0.0020247183325282185, -0.0008714298784018264, 0.0007073417984245306, -0.0006334049120632346, 0.0013978939509015024, 0.000537300560987871, 0.002156488320042756, 0.0011473222883346388, -0.0009977720919318968, -0.0009154617082010076, 0.0006314217693325494], [0.0018912094591688857, -0.0012090500704593635, 0.0013893842311873189, 0.00039559362000638403, -0.00014695913412131895, 0.000609900728681027, -0.0005936077494628344, 0.00029540487275861904, -0.0007181206869402025, -0.001287236470939792, -0.0011156168317148283, -0.001616168992781225, 0.0007328677191449096, -0.001063343094576292, -0.002625847356548472, -0.0014243647022021805], [-0.0012716374020565328, 0.001343029870579768, 0.0004860929063085421, -0.0001713234037461911, -0.0023009779926362025, -0.0009991386403489354, 0.0006005554914590202, -0.0009039815025053021, -0.0011533150290678204, 0.0019448741986387542, -0.0008270687130871591, -0.0005237017519121977, -0.0005160466201462622, 0.0010543752858649213, -0.001719091196595028, -0.0016801151263434921], [0.00026754419615475264, -0.00033421613650557987, 0.0009733404619447814, 0.000999616102859248, 0.0012177535737073124, -0.0005580771864063997, 0.0004436632138044671, -0.0008412848816963922, 0.0006529249721121183, -0.000159714455104956, 0.0013150232575795788, -0.0008194558914811343, 0.0005503662788043347, 0.00043921597885122546, 0.00041446779276757784, -0.0014262518546243723], [0.0006114907757932351, -0.00019493304222517848, -0.00029778108736418484, 0.0009365362221272429, -0.002593802078624669, -0.0004777038029197844, 0.000273569751778645, -6.52568049119899e-05, 0.0001760696694670716, 0.0010471132317354365, 0.000841661375234837, 0.0011852098366260263, -0.00044981258737095614, 0.0006708952090186235, 0.000282590703430066, 0.0008289633091475343], [0.0006714794316244377, 0.0008565286308302418, 0.0005970691423725468, 0.0002795974027531878, -0.001828394606860077, -0.0015628874071812683, 0.001018805316323159, 0.0007557410477174656, 0.00184767873378757, -0.0011228479100304214, 0.0010156468737396636, 0.0013527461388359832, -0.0004300199150869488, 0.0012345283223383855, 0.0010995128108401177, -0.0011703019225395204], [-0.0014076648984058533, -0.001413808180875499, -0.00031116525731537183, 0.0006257582844862952, -0.0007184146465307734, 0.0012050458027064305, 0.001116019145454194, 0.0009111372162559623, 0.0009542564997084337, -0.0010750280115522863, 0.0002522269413226582, -0.0014396440646615076, 0.000750741319002611, -0.0010517534618826197, 0.0009762300889999478, 0.00026457499159666497], [0.0007562833760032681, -0.00012788068108757154, -0.0005604112870833419, -0.0008326755062808084, -0.0012678189215774886, -0.0004014804869009505, -0.002006707628157133, -0.002124398363199525, 0.0009717494412934747, -0.0009227060948143014, -0.0015349107710316094, 0.0009408788984891773, 0.0013385445134433485, 0.0014786847246334406, 0.0007743115063860172, -0.0017006776447365708], [-0.0012637813479618402, -0.00015098492047557348, -0.0007788261687261695, -0.0009418187145298372, 0.0008072226620490072, 0.0009845189335663095, -0.0005629220553575838, 0.0009491755687166374, 0.00020914326544623467, -0.0019567169350651293, -0.0010396137722494861, 0.0012449777962525168, -0.0010358277844457458, -0.0011449995885213639, 0.0014362689614099893, -0.0005032855905974551], [0.0005315610795925995, -0.0007332442111109441, 0.0008565462256256471, -0.000889514055636114, -0.0016365145446424962, 0.0018604739047002649, 0.000518402145789366, -0.00032653066825519977, -0.0012542223385088775, -0.0012971505812179012, 0.0024477497638658403, -0.0007919065908692602, 0.000987812447105026, 0.001977356439179811, -0.0014398891179419314, 0.0014553601415066507], [-0.0012499298641240823, 0.000823224404710061, 4.9328550108927696e-05, -0.00041960994789870445, 0.000865832490514128, -0.0002900336797264193, 0.0007278882995242495, 0.000464369560700772, -0.0011497761186300764, -0.0009238335825843719, -0.0009094905132066416, 0.00021330821970088224, 0.0005412395316748701, -0.0012523114971740657, -0.0009466751048041366, 0.00047725439954795617], [0.00015968509531566247, 0.0010797680619108194, 0.00041566804491372124, -0.001507298429829608, 0.0005750366913951955, 0.00018744932655880088, -0.0013854690852732566, -0.0014747004215524726, -0.0004101348653017068, 0.0003200070054106801, -0.0010196964613633922, -0.0011290173621097117, -0.0012453997885638684, 0.0015173458939583197, -0.0009730272732838107, 0.0013453564346248593], [0.00013252862421429077, 0.0012577891248833069, 0.0006724264561902586, -0.0006468457355357953, -0.0010703008274115054, 0.0021224238578762765, 0.00025060424332280844, 0.0014550324115464358, 0.000345291702864579, -0.00046938890655547977, -0.0008883518138544687, 0.0015370514378649583, -0.00025116332490362505, -0.0006354101578220837, 0.0010483438408195995, 0.0009307372467766959], [0.00040246001477788, 0.0006278776422244215, -0.0009106916586357629, 0.0002339894065655001, 0.0004177522615916056, 0.0003796222573793492, -0.0012374037916116775, -0.00037831062847610804, 0.0003227528603453321, 0.001341154934636483, 0.0012898339101515863, 0.0007345725961842829, 0.0006918703465404981, 0.0006776309171828834, 0.002195589848129854, 0.0016078446751983085], [0.0009674199625570646, -0.0008449116968891205, -0.000814751851134312, 0.0006178820702142396, -0.0013813572477179665, 0.00010071817990489527, -0.00013929728494302553, -0.0003234410791839068, 0.001674045332697068, -0.0008419610190975118, 0.0015155787446452854, -0.0003354519790527316, 0.0004892693191859854, -0.0010377051522615414, 0.0013895722585234016, 0.0006984269522717075], [0.0008696814160026675, -0.001079007897253863, -0.0005474113697746492, 0.00037813765663123773, 0.00040849316076689725, 0.00047499412283217055, 0.00015287582464118324, -0.0020674322488576564, 0.0007792479555895701, 0.000435778157093568, 0.0007334541422396647, -0.0005260198481384932, 0.0008906577338856962, -0.0004918278245049877, -0.00047208539015425744, 0.002594172146952202], [0.0006272511052214915, -0.0006579937460855795, -0.0005563564538579684, 0.0014629075469243477, -0.0005915562607134381, 0.0005736490346585168, 0.0008319646515768398, 0.001504181786291786, -0.00025845960108182537, 0.000732569046967763, -0.0006153887525299121, -0.0008379405321625172, -0.0011241105297855256, 0.0011495451885378987, 0.0004048197098390699, 0.0005203305380586486], [0.0008180565762023332, 0.0007520783630700923, 0.0002417220565141842, 0.0011309494647585734, -0.0001264709853503517, -0.0006139736561606284, -0.0016348679433219459, -0.001311545654394393, 0.0011036784434091263, -0.0009902587061996419, -0.0005671128471334294, 0.0009744730250718336, 0.0009304522447412815, -0.000834661056217757, -0.0011386024950221605, -1.787400538640433e-05], [-0.0007610681259048931, -0.0009317360522193631, -0.0007325461997988312, 0.0013526709985125943, -0.0011143971178723788, -0.0004611132801237833, -0.0015572461328699353, -0.001203874934701835, -0.0015906802869070352, 0.0014506376454410423, -0.00041569645022380486, 0.0007323047807146001, 0.0005370211283654622, 0.0005438467471161003, -0.0013118236881021095, -0.001136917878024694], [-0.0018219923706919963, -0.0006237232795816492, -0.00028262476429075545, -0.00175249087729259, -0.0009616646281253211, -0.0016849911464531882, -0.000822186029475834, -0.0010244390491639267, -0.000876256514662474, 7.96053209703281e-05, -0.00015819891999201336, 0.0008312769784497157, 0.001985294304673603, -0.0009475315546667102, -0.000673267537233216, 0.00077625533899474], [-0.0007365338595671964, 0.0004672211492008363, 0.0008553573525737752, -0.0015670284031524763, -0.0008443802125737308, -0.0011656074956641331, 0.0003496666083286803, -0.0009239580932604201, -0.0007335629513521459, 0.0008858005681387255, -0.0008158901937030077, 0.000664544062736818, 0.0017599113878401483, -0.0008089256200608472, -0.0006187707266589746, 0.0003076421601957038], [0.0009184586970133594, 0.001341156321136888, 0.0007038990787660585, -0.0011237939357477056, -0.0007501280007473569, 0.0010289165681656698, 0.0008839164816162037, 0.00015938915313110305, 0.00029225994325376623, -0.0015910174230944804, -0.0006150112872371208, -0.0005208628633655349, 0.00031388522393060786, -0.0008576702774663587, 0.0005594917445963602, -0.001092400493661385], [0.0009199953749808528, -0.001676726857868334, -0.0006043282452625244, -0.0005271130772552645, 0.0011773604138126032, -0.00029087167946512674, -0.0006907067719021346, 0.0007620210731801784, 0.0010472648417917518, -0.001722824128977933, 0.0005367398547885916, -0.000458176939048811, -0.0006409775566934646, 0.0010050967596599372, -0.0008405178237888449, -0.0005267654290091714], [0.0007628882342812787, 0.001993843515675483, 0.0005011237855866148, -0.0009937722985587972, -0.001270302354486068, 0.001079590532554162, -0.002188770959341526, -0.001860997963877524, 0.0009745058420602398, -0.0003552527382981663, -0.0002390682192763894, -0.0008641688138152784, 0.0007876068940617665, 0.0008105482088156092, -0.0008656595434973632, 0.001190580110875679], [-0.0007929529081349412, -0.0007438351573102849, 0.0010371744653203902, 0.0007894902196131469, 0.001287097063978531, 0.0012108921198341885, -0.0023372569778161603, 0.0005978789190592542, 0.0002700092781411535, 0.0006431248497807877, -0.0014053707183987526, -0.0005198965371499099, -0.0007948464788600283, -0.0006187213471661445, -0.0013537204305964178, 0.0020045756439997257], [0.001343306312696672, -0.0013146458777107872, -0.0018213982409348733, 0.002061058883096512, 0.0006995259174601234, -0.001690683245146957, 0.0006847085331036822, -0.0019241665948014402, 0.0003229310363139513, 0.0006697776394391633, -0.0007005630280814587, 0.00108077878840248, 0.0014449918124951218, -0.00019707088593698023, 0.00035687441486193314, 0.0006529593112911828], [-0.0013974627053693284, -0.0009195653697210822, -0.0009946909490551347, 0.0018971153807534745, -0.0017283152794440758, 0.0005086984367808377, 0.0006494472933000132, -0.0009321637077954092, -0.00025598307914663395, 0.0005099898021136484, 0.0005149321388769807, -0.0004756518951169909, 0.0010085456430372372, -0.0010092342355469133, 0.0011517577648900627, 0.0001746220358330265], [0.0011600307123467637, 0.0007163273965343802, 0.00048800933314113715, 0.0008429731823640811, -0.0009141289025115872, 0.0010774677510099254, -0.0013002576781986931, -0.0002702980124750106, 0.0008786720552242054, 0.0009970411450517594, -0.0002690452377523466, 0.0009630435882117418, -0.0014301257300325739, -0.001360704909964344, -0.0007797051189548232, 0.0009720838769506221], [-0.0012128607496003317, -0.0004776353080268626, -0.0015560801468043422, 0.0006141517739855684, -0.0005300580052913866, 0.0012800707217867574, 0.0008359623383210916, -0.0014338222511465107, 0.001363748462979009, 0.001045660101104041, 0.0021426325533694486, -0.0004936296483628288, 0.0017510623954520338, -0.00011673675635408103, 0.00025117242772587964, 0.000908642655074991], [-0.0006212715411874796, 0.0005150449515420512, -0.00023585911111976722, -0.0008983510255683935, 0.0014369860013746503, -0.0006515920254024235, -0.0003001788968632796, 0.0005364199350797694, 0.0005361668449798944, 0.0017201443653069818, -0.0006434202253709493, -0.0004875131350450313, 0.0003612122304506539, 0.0005231318612442996, 0.0011435320432887422, 0.0007760759369205333], [-0.0008255880470180347, 0.002106103326055865, -0.0018575597193566857, 0.0006039961355308241, -0.001054815418734866, 0.0005184499960947156, -0.0007273839919761123, 0.001246345789619987, -0.0008331422788159707, 0.0004869218554029596, -0.0006922272428900831, -0.0003378695195586703, -0.0007350374433938112, -0.0007450973154508403, -0.00171929360562016, -0.0010206635385169602], [-0.0012488891584046626, -0.0006665762918157265, 0.00048072785288832504, -0.0016381016549867587, -0.00018220844364482384, 0.0007316211188596825, 0.0008023177329737713, -0.0028000040001613345, 0.0005646718864540642, 0.00045905371833205547, 0.001202379384966513, -0.0007568991166167783, -0.0001367480880413393, 0.0005519479525621924, 0.0007782185350278915, 0.0015522698723088077], [0.0003543813860071986, -0.0007798577334629592, 0.0014809823607572926, -0.001817061657248345, 0.00033149547143791384, 0.0014805422908171237, 0.00020974436485142613, -0.0006779840733095462, 0.0006978193653196662, -0.0009135189612526218, -0.0008885716656527624, -0.0008687544617962752, 0.0008026078458234765, 0.0011876652304988041, 0.0018393547850706579, -0.0003160143616592403], [0.0016084271074547248, -0.00106638889423279, -0.0007453758875487949, 0.000999904083605696, 0.0004901623980495214, -0.000730355712993862, 0.0006652777368633051, 0.0009054340489851469, 0.0009226648399934411, -0.0011500886352911299, 0.0008273660065598231, -0.0009450876226998484, 0.0011691966439667293, 0.0015001544002183275, 0.0008443339012966787, 0.0013513012909820467], [2.846413640665906e-05, 0.0004867683361992604, -0.00024839732992337825, 0.0015138938442066702, -0.0006071704738885117, 0.0005600576008533598, -0.00030847884704347214, 0.0021467729743330534, -0.00042109338434429444, 0.0007040682705024282, -0.001165693806384779, 0.0009502531694339076, -0.00017901437884543028, 0.0009410629431107068, 0.0012634973352782129, 0.0003914660526618981], [-0.0009083052664167001, -0.0014617593256898364, -0.0004856642969305743, 0.0019345075548869418, 0.00016965590189221488, -0.0012777721228561425, -0.0009780670889267924, 0.0003387137389530324, -0.0004483071351116684, 0.000815493294219809, -0.0010396502937668973, 0.00022997553412670426, 0.0003326676776862452, -0.0015814062018587043, -1.784514234385363e-05, -0.0011351883180210041], [-0.0019450337747946138, 0.0001257646176777459, 0.00016083402166589556, -0.0010463469196551295, 0.000446380023483644, 0.0004514012446356142, 0.0015586330583153, 0.000596090635563967, 0.0020037712863835645, -0.0002541503128142538, -0.0008730069284900941, -0.0004456381102749446, -0.000650404687167355, -0.001342460856162812, 0.0007590217953181854, -0.0015426763110441928], [-0.001316035673870727, 0.0004861944170804824, 0.0002528979868233531, -0.0005609441222117011, 0.0019292236457808334, 0.001704242377089311, 0.0012562080887550055, -0.00020831592292050384, -4.461065949402512e-05, -0.0007256338007823447, 0.0010407588907960902, 0.0004428840355141716, -0.000837061411782991, 0.00035026228869380855, -0.0004558320165268694, 0.0002908231181239903], [-0.0005931786915519932, -0.00155792691440204, 0.0007378166283644072, -0.0016262732361366705, -0.0013539088978220429, 0.000511195623957149, 0.0002499761008059003, -0.00039048929797522365, 0.000554217371066312, 0.0015796186883170386, 0.0006002345950047489, 0.002040526008958909, 0.0011777132884007678, -0.00040457365147899714, 0.00205750577517023, 0.0008253214729833127], [0.0008664311309239474, 0.0012877399532096546, -0.0002560615735895144, -0.0003328800190615199, -0.0004409030232325577, -0.00145145202601672, -0.0014326572666046957, 0.0006437252223287564, -0.0009033142448280735, -0.0013704076300914201, 0.00027975168823902665, 0.0014992355722287256, 0.00046374499445197426, 0.0005813078430500921, -0.0006399015391836634, -0.0017129515655627825], [-0.0007321131067505989, 0.0010599257368966665, 0.00041215603619972004, -0.0006911100657708083, -0.0008903158657846728, -0.000866151695810092, 0.0019112139597559383, 0.0008215756148651237, -0.00019287479805658826, -0.0004641587420602633, -0.0011347107085674729, 0.0003688278649370782, -0.0009821828256875399, -0.0005665504603256866, 0.00012744591083768916, 0.0003075154009318855], [-0.0017981953109384627, -0.0005362346320469217, -0.001364442122586825, 0.0006823296869242283, -0.0003077688290274339, -0.000739535591497744, 0.000788330013365341, -0.0013134553778249326, -0.0011887049816194668, 0.00032764033158417497, 0.0016390463524464333, 0.0008211431857715626, -0.0012187841262716811, 0.0012923955789894664, 0.0016520934056163538, 0.0010649327034901552], [0.0008064863406956125, -0.0011279642583480291, -0.0017381564475179708, 0.0010392094285506933, 0.0010405052020618427, -0.0009446011466050911, -0.0009381713338144285, 0.0007472896546842394, -0.0010280893752018026, 0.00032682202903253744, 0.0006087261315465874, 0.0013615437551410061, -1.3512293838016783e-05, -0.0013448529496586342, -0.00028443175612146484, 0.000464965252282661], [0.000566429896456981, -0.0015315667281376331, 0.0010219032998074094, 0.0009795425051617834, 0.00012348980613452405, 0.0009268635558565781, 6.139023955919139e-05, 0.002286545528418809, 0.0007669948981835154, 0.0008069579932953373, 0.0012778969775578397, -0.000791268962221063, 0.0009964388170524074, -0.0018945416115855834, -0.0017827518358473227, 0.001714600313837844], [0.0006743859189468494, 0.0013826983520582113, -0.0011586768365474639, 0.0019359088307782768, -0.0013995054586692166, 0.0001969740076376853, 0.00036542660659243207, 0.0013960745518474195, -0.0009882500640217326, 0.000459554534553374, -0.0004776736243987277, 0.0010298737804770631, 0.0022145005087320898, -0.000866429059239009, 0.0001869605254515217, -0.0019906504253066203], [-0.0010416707261573514, 0.0002609176995295516, -0.00042522766510380767, -0.0015219845480807885, -0.000892828295118085, -0.0008027126703631616, -0.0001964261895001838, -0.0006466529902655637, -0.001759660186222335, -0.0005873479622186231, -0.0009925536706902756, 0.0009677954806914322, 0.0009637137592445899, 0.00018459652701951758, 0.0007297992955670061, 0.0005373548735479266], [-0.0003504446766504301, 0.0005868563862336646, -0.0004536186920582348, 0.0008810899452786237, -0.0005751104804975291, 0.0010198344086866018, -0.0020280518782804964, 0.0008191614721042574, 0.0008835416717527318, -0.0006397755445743966, -0.0007810769870430746, -0.0005473452842671059, -0.0002683242687737222, 0.000977658053185764, -0.0015725485587530952, -0.0012020815896264317], [-0.00020175040635299135, -0.0014298243196604527, -0.0011601947507711705, 0.00026512854697444897, -0.0009404098841933127, 0.0011271795080103437, 0.0003969106062969019, -0.0006613210564802172, -0.0010187690395741544, 0.0005981351999445377, -0.0008113259550429078, -0.0006158211030811931, -0.0008258195340859697, -0.0009591965035702074, 0.0016530772820153583, -0.00013585214872740694], [0.001362994070207286, -0.0004775441559942573, -0.0005760286260369052, 0.0008802493503222793, -0.0003528771440317758, 0.0003077220047732868, -0.0007819569286101848, 0.0009687367108435856, -0.0011551161789336375, 0.0003053795202392314, 0.00038394542172569805, 0.0007220960332960525, -0.000588823724841462, 0.0009026739127832995, 0.0005742148694256796, -0.0008096538852431765], [0.0006999923846744237, 0.0006412505875712303, -0.0013486326007152232, -0.001218147709254466, 0.0017514495309802537, -0.0004857952227917459, -0.0007000892032954305, -0.0014620362725861484, -0.0005168508512928552, -0.0008867549672149211, -0.0010787158305356648, 0.0013723354370145013, 0.0003740133510769722, -0.0007209673829010921, -0.0006939163665237021, -0.00028160915773544894], [-0.00018427220098777398, -0.001195255278078695, 0.0012428237046968715, -0.0008055484542755946, -0.0015011121341933274, 0.0013367936045619825, -0.001234099480906216, -0.00190259201745171, -0.0012536195925894398, 0.001081155946668171, 0.0007011981615742101, 0.000414555509329742, 0.0014376581900853954, 0.0010223894107213058, 0.00047563592569984617, 0.0005749660750403307], [-0.0006173422994500848, 0.0014797043258254863, 0.0003535671894231691, -0.0003154067667319626, -0.0018510862313063524, -0.0012074965436472188, -0.0011188934780615668, -0.0005775659879193333, -0.0003247991433823529, 0.0009450926609407456, -0.0009795833700782098, -0.0022883175892475177, 0.0007547265700725888, -0.0006686737987234841, -0.0008954518470881539, -0.001551863075522118], [0.0005149507671178087, -0.0004454004285369049, 0.0005642379544772469, -0.0011273106912400815, -0.0005320681720369054, -0.0006521050511961032, 0.00039143573525785865, 0.0010295932728418794, 0.00028223246701113803, -0.0016228069380151266, 0.0011719695856321078, -0.0010987653988898144, -0.002031965189171172, 0.0022268267697103947, -0.0005673875241524369, -0.0008118956020817757], [-0.00046515393515346, -0.0004874549858213828, -0.0001423009088954036, 0.0006668514570526721, -0.0004913222513041307, 0.00022661140188580105, 0.0005942353034377311, 0.0004806345066726139, 0.000602519425401131, 0.0026366308385656814, -0.0006155607354125162, -0.0014213921188195513, 0.00083461661940028, 0.0005032336968932929, 0.0007097922146533721, 0.0003392095602047269], [0.0012536417924070235, -0.0006378279972861613, -0.00017105883730535128, -0.0013778873724103247, 0.0006024349497775334, 0.0012210958035279154, 0.0002950268761183921, -0.0005375126515745777, 0.0009095261542909828, -0.0016963094811758921, -0.0002457948749509425, 0.0006541048853026189, 0.0020690299406540586, -0.0011131728032973255, -0.001340945451359034, -0.0011187394725462256], [-0.0006362269703038657, -0.0007266881685731369, -0.0013939374585271406, 0.001464627365972575, 0.0014532358073907458, 0.0008057548158763301, 0.0011986022438724212, -0.00043193238148499165, -0.0010596881802995433, 0.0007587225001333689, 0.0011719600837993103, -0.00043121187252357447, -0.0002177985986671257, -0.0009956793731224114, 0.0013792138146200774, 0.0005897312004430597], [-0.000462602973524712, -0.000769618665401693, -0.0010204816272777304, 0.0008957809903885016, -0.00119763968378787, 0.00043597809627514975, 0.0016360326804931967, 0.0006255070179967245, -0.0011574371899284585, -0.00032682779627942637, -0.0010609384186546847, 0.0012912050609370602, -0.0007814875155757225, -0.0010092759815261668, -0.0005020349630878366, -0.00037858277089705076], [-0.0012799215322545625, -0.0001267849466071107, 0.0016693935382638147, 0.0002454092762363755, 0.00036307202392989033, 0.00026181963846337434, -0.0012747397655427054, -0.0012418343561698033, -0.0006518472253363069, -0.0004286217141206039, 0.0007978138121416134, 0.0009966228072839992, -0.0012367837997463607, -0.0008933654457426855, -0.000969948760984409, 0.0011344459168788736], [0.0008689430244283553, -0.0005467849396487478, -0.0008728113319727261, 0.0006898635258621252, 0.0004093550090218199, -0.001083426069779567, -0.000483506735517563, -0.0012227590093214884, 0.0007799366684977858, -0.0009076115121915189, 0.00045345510349577604, 0.0015723161575865484, -0.0009004280262888627, -0.0010594063686718389, 0.0002854978827141636, 0.0015882854684175622], [0.00016068451145592608, 0.0008923602148227315, -0.0006294352673090846, 0.000968386434812859, -0.00019644697576583285, 0.0009883770761379143, 0.0004340116487030518, -0.001240751095029733, 0.0010990903396506761, -0.00031867134745399307, -0.0006307440682955869, -0.0004880705266815629, 0.00026839783712440747, 0.00042844023969742617, -0.0009122258739496442, 0.0008844945497276159], [0.0008310844478926377, 0.0013161908262108023, -0.00010995541545295435, 0.0012492541589956118, 0.0009408573745318606, 0.0017734442290287848, -0.0007002897141874484, 0.001209052663636814, -0.00031073113634586853, -0.0009632525392310498, -0.001849629951525336, 0.0011723462552456873, -0.0009405680228061371, -0.000767257347254506, -0.0005105561440286961, -0.0005715789538239062], [-0.0003698198749836323, 0.00012115091961039412, 0.0010571761919757577, -0.00024140467867736137, 0.0007501811403349778, -0.0005804817912746741, 0.0013619689432725268, 0.0005012445768774862, 0.00044808750996753815, -0.00030517735793234783, 0.0005842958225475925, -0.00012457170727118397, 0.00185192452444686, -0.0012206065450717208, -0.0010142745455692887, -0.0007966552983032117], [-0.0006514383268319077, -0.0003897767594175253, 0.0008418012881646267, -0.0004948969189620265, -0.00083426808193011, -0.0009687890686043986, -0.0015864332540201612, -0.0005312875905886246, -0.000932754621762948, 0.0007285234055245779, -0.0011175052108049078, -0.000586328913247118, -0.0009689658990818949, 0.001116831550013475, 0.0007099832299221912, -0.0011892444268785868], [-0.0005062182581221813, -0.0005678248128860998, 0.00027423783394349893, -0.001234794927048867, -0.00041082399378475874, -0.0007725260634499655, 0.0011470009717281613, -0.0010780760104055836, 0.00018412440946783843, 0.0006009886382724166, -0.0003141629090874498, -0.00028668640747795044, 0.00019864634163887411, 0.0013664505502051108, -0.0006952543731882909, 0.000738426873139293], [0.0003423432602381549, 0.0012111498072613293, -0.0009093181867952153, -0.0007067060141280633, 0.0007208051703143092, 0.0007813938972208007, 0.0003389589195794629, 0.0011561212806135148, 0.0006136385939509109, -0.000809076624226469, -0.00034615418818459057, 0.0007961021333377672, -0.0004234687039481973, 0.000632284535679474, -3.9306529664289085e-05, -0.0007878839286914976], [0.0010608714972346707, 0.0009519174396364926, 0.0005838925101410113, 0.0015724113501337444, 0.000769385168757499, 0.0005507948851151501, 0.0015539959743610366, -0.0008888800869789742, -0.00046434692418418906, 0.001068606877437125, -0.0008158933636610439, 0.0010468719293683195, 0.0008246440458028907, -0.0012035029309320992, 0.0003481054579056346, -0.0006617464070118508], [0.0007114436028991376, -0.0014119834901813227, -0.0003622120900774209, 0.0016229419439051749, 0.0013368423245409698, 0.00027651172416369007, -0.0009288891296722762, 0.0010690139961937464, -0.0009551016888243741, 0.0013467988310432249, -0.0006554042003528738, -0.001100719584490634, 0.0006904100787367404, 0.0010692421264624891, 0.0004042266838625233, 0.001435419243337862], [-0.0006485493589813629, -0.0005362019362689359, -0.0002609826686867617, -0.0007828149744554887, -0.0003106556648842199, 0.001164728156545066, -0.0014204829511895965, 0.0012829386788155716, 0.0006176745520243672, 0.0009398332325373884, -0.0011325745839120662, 0.0015867713278922932, 0.0009769144292618495, -0.0009709286196414819, 0.001360433883835715, 0.0009736476167780539], [-0.0010637282302734343, -0.0010192664877206614, -0.0018760432055945156, -0.00098881128553032, 0.0006651889793272875, 0.001521166519747125, -0.0006016248827986894, -0.0014829195695373236, 0.000321588616152791, -0.0019235310443789981, -0.0008755431053488338, -0.0008865272865954274, -0.0008207892217537118, -0.0013392855896802878, 0.0011779036457931057, -0.0007880674382767024], [-0.002204213151306454, 0.0008894039025964358, -0.00046707507511014197, -0.0014833440331243992, 0.0010979536360540831, -0.0004919057316575918, -0.001440600378797024, -0.0013337397615836505, -0.0006525568632200399, -0.0004457625736354791, -0.0006659260005435856, -0.0010495181176667324, 0.0015625514099011197, -0.0012204380182371172, -0.0014774774665465432, -0.0007828270505344], [-0.0008034628095064373, -0.0006122399543533376, 0.0005201923067328189, -0.0010499889475241537, 0.0004559747108235422, -0.0006751078471286968, 0.0010015582420701248, 0.0007764417876993806, 0.000789747352800803, 0.00023143781397901557, -0.0012839653472779726, -0.0007404143132984892, -0.0005986375564713169, -0.0005170170134514753, 0.0007517589832890239, -3.3018580558075905e-05], [0.0011864439604341865, 0.0005690313467132417, -9.740825133907759e-05, -0.001024184325559885, 0.0008934909494677146, 0.0010926080290015905, -0.0007774236417389994, -0.0012730247975161013, -0.0004905702656053351, -0.00038497804676371927, -0.001115455105545112, -0.000770353394365377, 0.0012767419628259417, 0.0016053523748331107, -0.0016969464244832018, -0.0010802685352084543], [0.0010323662773009305, 0.0005526391834971342, -0.0015523633780400818, -0.0014378890202921114, -0.0009674618912377617, 0.002018205743354515, 0.00112048949061644, -0.0002829058329930584, -0.0005860281376694775, -0.00017091588863364087, -0.0009505150887667412, 0.0014046363767363404, -0.0018031801860715377, -0.0014034970554336074, 0.0011716388001535725, -0.0012753873938664909], [0.00035032109986749704, 0.00030760061065625066, 0.000792462699952674, -0.0001937831922317695, -0.0019612438708970586, 0.0006981059343859209, 0.0004128924527678582, 0.0008989097562334243, -0.0010329472791586799, -0.00016963574858095863, -0.0005483541393596108, 0.0011361242336501286, 0.0011817496462319728, -0.0020272980194303448, -0.0014593189898183469, -0.0006899127720904391], [-0.00045147100439568396, 0.0009396148288337593, 0.0014079970469263146, 0.00038365518791288214, -0.000814185024368032, -0.0007600884355852874, 0.0011300492368357196, 0.0012070062132806994, 0.0012489469522631402, -0.002136413152596602, -0.0010732503544412264, -0.0008253231627118375, 0.0007677866593600932, 0.0010878542058215127, 0.001193387672997018, -0.0006360318470251745], [0.0004235481103580502, -0.0005608813403575287, -0.00048598250674556796, 0.0003917917460930307, 0.001149934860192839, -0.0010082438651204686, -0.0016125376353893935, -0.0009679398711089352, -0.00036858872667794415, 0.0004597454738324664, -0.00032021031056915603, 0.00041930406368820636, 0.0009492238903605509, 0.0009226583777599829, -0.0006414713941828671, -0.0004265224270447529], [0.0009028569586386255, 0.0004335797317593244, 0.0010004793687592782, 0.0007119859016066584, -0.001215567033900549, 0.00146640050462669, -0.0004597703159632218, 0.00022081807293562077, 0.0004227073192601894, 0.0013342081828783682, 0.0006555472428048316, -0.0005349247923541412, 0.0007918809031108962, 0.0007297825918749917, -0.0004638177096111124, -0.0006767611977318356], [0.0012728144661694491, 0.0003348288585951257, -0.00120644986874103, -0.00041908690346086037, 0.0017303108862626653, 0.001187900356451113, 0.0006051919822371363, -0.0005935276545350814, -0.0013605591381304796, -0.0007361736269338574, 0.0005229941506235146, -0.0009956048123711014, -0.0003252969886420147, 0.0007219236945183636, -0.0013309379374427728, 0.0014046686314961787], [0.0003280434938416712, -0.0014655776095278625, 0.0009486181250815552, -0.0002204957606527146, 0.0007258731853950809, 0.0019060620847839863, 0.0005090754994802181, 0.0005125718812845237, -0.0009998055417050641, -0.0006831856426783665, -0.0004857640229238102, 0.0011223615357579253, 0.0002886873617113362, 0.0004251180617933056, -0.0011869044214475892, -0.0009620138925715206], [0.0012984631414628485, 0.00040556171905866594, -0.0007035638078166295, 0.0006241511540728602, -0.000689124151196915, -0.00041591207887677225, 0.0009237278308268153, 0.0009516253386930447, -9.398850755215052e-05, -0.000673912644513734, 0.0008863470547484656, -0.0012659733313631909, -0.0006713469031723191, -0.00013584328636852505, 0.001038519901805275, -0.0010812912440401692], [-0.000805924952707882, 0.0004399274299577849, -0.0006551633619013033, 0.00116434339734391, -0.0001584575474256247, -0.0009281587362364875, 0.0006738559315415101, -0.001031900613888332, -0.00210139319454153, 0.000583305618837297, -0.0011363958982041232, 0.001528134991032644, -0.0006801151401201681, 0.000517070333549555, 0.0008519091041423271, -0.0013756751015352759], [0.001281988815513393, -0.0015333290542444606, 0.0003427747805842634, 0.00028535184835555235, -0.0008553207028535965, -0.0004948953169688986, -0.0009519670571720755, -0.000732116817074853, 0.0019987334683361536, 0.000559993633124445, -0.000546145213175002, -0.0006411004514565521, -0.0010205151110990606, -0.0011213843934539268, -0.0008583581762213224, 0.0011984949394522608], [0.0005890400617681332, 0.0005166599527907183, 0.0013201213870549602, 0.0011334763958551488, 0.0011979272921449776, 0.0006164073410536081, 0.000578182251593666, 0.00045708339426854, -0.00038833351039012284, -0.00035779685795214223, -0.0007341829940786052, 0.0010983374058615924, -0.0007678128214508793, -0.0012041198701294986, -0.0004679389221089417, -0.0006804505729695385], [0.0009254696037781062, 0.00044576794364059716, -0.002376906360949542, 2.939090310841524e-05, -0.0007473750312226124, -0.0009292468817279127, 0.0008342845632150676, -0.0006311357695024391, -0.0003142120764596599, -0.0017608895282925526, -0.0012753346631189948, -0.0012670836229995723, -0.0009723489200801653, -0.0007847010177350125, -0.001084142875213212, -0.00045196391036235147], [-0.00030688570853531615, -0.0004712749174540823, -0.0007301284906929148, 0.001081515227929268, 0.0019186098890141918, 0.00026160479603029563, -0.0016730978555446329, 0.0010578038737148268, -0.0011825096220971119, -4.5999271369422015e-05, -0.0006149848016743255, -0.0007757706413179825, 0.0011397724182920532, -0.0022658061841625307, 0.00037570090366516816, 0.001527288340997395], [-0.0011232603536877946, 0.0014903828915668173, 0.0016198295470588365, -0.0009451006172365048, 0.0008167263627938958, 0.00015325453668533584, -0.0007116982154926004, -0.0019157325345925719, -0.0009416141603726529, 0.000716985078683352, -0.0006282260364116564, 0.000689183861759055, -0.0003711101996633577, -0.0014145705658433025, 0.0010951305958799484, 0.0010355130043117364], [-0.0015862101157148388, 0.0008192454755198971, -0.0007379811088106904, 0.0010598085334231975, 0.0009066510049407, -0.001020655230794917, -0.001216827940286923, -0.001353371048395104, 0.0009388465726202317, 0.002035762592112457, 0.0008855817762881129, 0.0016417767175912524, 0.0005353186535107764, -0.0006480957763756847, 0.00027474169770775854, -0.0009991600391493448], [-0.0013498707742875034, 0.0011230047641586458, 0.0010363278859894269, 0.0012282313054230926, 0.0006970383364756789, 0.0005023804295189527, -0.00019816146170439642, 0.00022805690345714926, -0.0008082994426528752, -0.0001875692148869188, -0.0009309536218835289, -0.0008605838279368403, 0.0008904773139160976, 0.00025483496270261533, 0.0016148695104057714, 0.0016146644577756013], [0.0016823316219064513, -0.0011879019986907515, 0.000493985659598906, 0.00018626698926933348, -0.001697862805158697, -0.0018631296335412234, -0.001514594470012357, -0.00021611524449064207, -0.0005099698804395771, -0.00035845628397387257, -0.000597442032670613, -0.00045166450988750006, -0.00042292717121045377, 0.001956231879266939, -0.0012702033358876486, 0.0016262457203563144], [-0.0008147625890280777, -0.001160888146302837, 0.0008977507967918443, -0.0010066429034048957, -0.00040600271359753494, 0.0004654232292224013, -0.0005447867105567368, 0.001064789587575628, -0.00039836320302162994, 0.00045678848150749497, 0.0012298190547152474, -0.0003866876954191757, -0.00012830101761691627, 0.0012410517995110198, -0.0015679866988752159, 0.001562829760656633], [-0.0010323627148285618, -0.00028243108500247243, -0.0004356025691231041, -0.0009338736767965396, -0.000626259375938257, -0.0014894089138556585, -0.001230200346222194, -0.0012759893185894636, -0.0013255305046312622, -0.000467600588317259, 0.0003729610125878808, 0.0018829416840682395, 0.0005411874157376871, -3.754066544043982e-05, 0.0018049753892589284, -0.0006907955939775613], [0.0023461708404036584, 0.0007954199065269785, 0.001124411489451608, -0.001292149496283069, -0.0010125083213753368, 0.0008682937968236161, 0.001926759193318869, 0.0009385270522122925, -0.0009867262311443598, 0.0015761237698235155, 0.0009105560196880935, 0.0008725160539168092, 0.0005157356039145663, 0.0002820441092797966, 0.0004385742204513368, 0.0006918873075279288], [-0.0007210742567392537, -0.0016991522247820662, 0.0021424449768629623, 0.0003725086928545297, -0.00027383243751033883, 0.0008344796676331195, -0.000518818936437446, -0.0004655870769268098, -0.0002697675278538424, -0.0012475490065971561, 0.0010401705813347741, 0.0007421851291243023, 0.0009296354251371716, 0.000941894899382816, 0.0015075471514763821, 0.00043765587900329833], [0.00031434871001403, 0.0012257135488771753, 0.0007048616969603235, -0.0014757766567653932, -0.0007716701298560776, 0.0013034254072946568, 0.0007548035265190843, -0.0009464327228326521, -0.00028375668352576325, -0.0006014417341968734, -0.0015967954613142533, 0.0008165334219322901, -0.0019038854752444427, -0.0002317435536067801, 0.0007002481883257544, -0.0012369614404567051], [0.0006244228628732732, 0.00037333523365591295, -0.00010135830963525831, 0.0005255605133139627, 0.0007288772276901095, 0.0006449999813054962, 0.0003815291114293113, 0.0014035512867342868, 0.0012968383626381715, -0.0004062479243012756, -0.0003650417881852649, -0.001561940765779403, 0.0017178863257441342, 0.0002991111715186651, 0.00036705179082924765, 0.0005982694569321203], [-0.00128255090995209, 0.0006497595837869268, 0.0002959046874990454, 0.001017684973087528, 0.0007129135996067677, -0.00036177763021487614, -0.0009465841553728658, -0.001119571811015812, 0.0007463069315115904, 0.000740409141064871, -0.0004945322367041061, 0.0004860005873029772, -0.00032007968069015064, 0.0014557393972623389, -0.001623451711784363, -0.00041728652836438664], [-0.0006561462332226503, -0.0011180257318736439, -0.0014254531640737259, -0.0008638382454334818, 0.001257913232224277, 0.0008235410279215496, 0.0012839494494218935, 0.00037765469245758644, 0.0008134595949766619, 0.0005836458198545943, 0.0007366690715137709, 0.00138891059613942, 0.0004118904045721162, 0.00047263863432675047, 0.00048775763825776826, -0.0005499877450452677], [-0.0011588462169150715, 0.0007235630982138311, -0.0008780478503467674, -0.0008020904841149717, 0.001817350669473108, -0.001396257117509915, 0.0010081916370186037, 0.0006682800599616186, -0.0010711059329588934, 0.0019080356886047173, -0.0008831358237984223, 0.000832781505428145, -0.0012509132670516761, -0.0009522486257740551, 0.0012911206335130074, 0.001161056015919088], [0.0011899942316888612, 0.00037511092149402226, 0.00111333441574397, 0.0008518744635615354, 0.001380956830794043, -0.0003977706647205256, -0.001278113539199483, -0.0003269797914037408, 0.0010769492630470015, 0.0009664264575960396, 0.0009185658025631606, -0.0013300305008191102, 0.0010501566712888075, -0.0016256378000027944, -0.0007697990063319208, -0.0009509369334497425], [0.0003196977731684769, -0.0010605345366279202, 0.0006403576957967049, -0.0003630119679069248, -0.00022316365622276405, -0.0010878070279113949, -0.0007638745572465624, 0.0011013102297852742, -0.0011277887681943122, 0.0009080836390393768, 0.0006804675431266772, -0.0012329372619937881, -0.0003719493248460643, 0.0009220956536844189, -0.0013721083905039553, 0.0015513148446414432], [-0.0002529053204112991, 0.0013451784650788854, 0.00044372299222690553, -0.0007850973819829644, -0.0013026955560349678, -0.0004666171732339681, 0.0010954462765411987, -0.0005260036302689408, -0.0007711276157006418, 0.0007741396065314888, 0.00148107755583066, -0.000846730789762416, 0.0007247894913791283, 0.0009921253256331868, -0.001157107485703754, 0.0004740521617563687], [-0.0015517350174158835, 0.001598896735604631, -0.001050242502516304, 0.0018206815430372707, 0.001938225690808946, -0.001277134246983497, -0.0008486709878388548, -0.0006550704704500901, 0.0009273180460568957, 0.0009070821273519716, -0.0003993320394405419, -0.00041792855837743774, -0.0013136567964697453, -0.001373071649600029, -0.0007730949945511489, -0.0002863402052654104], [0.0005776703903371489, -0.0009362024419805636, -0.0005502191473681747, 0.00039554316063517464, 0.0003876229745958407, 0.000290753361602605, -0.00034819787417148115, -0.0007947611141717832, -0.0004641577662650584, 0.0008662757775652976, 0.0010692336983168902, -0.00046275929611217735, -0.0004337890658539129, -0.0011601877540969128, 0.001479763058780574, -0.0010061226032094185], [-0.00018455094701227097, -0.0014484835354183984, 0.000677587128484024, -0.0009838804970726406, -0.0007693336131388644, -0.0010583164481082256, -0.0017012605705574236, 0.0011874597334659773, 0.0018612269932700974, -0.0012716120636584265, -0.0006517675409965613, -0.0010984654570767604, -0.0015826905745958315, 0.000629911938384215, 0.0007507039707646371, -0.0010314846250180506], [-0.0008170995176109428, -0.0013509313862501474, -0.0015249727168644644, -0.0005556985888324707, -0.0005537228392968892, 0.0008360463798696223, 0.0004689354384665053, -0.0015849790860616, 0.0006611606212617891, 0.0011659338175842974, 0.001282947717027097, 0.0009075158520238487, 0.0003164972896321189, -0.0009414565622639396, -0.00100557759352002, 0.000656586452620073], [-0.0007154302727054163, -0.0009993026725331707, 0.000466460593170206, 0.00032389450410212644, -0.0007217185433296998, 0.000324793348872218, -0.001218424554210788, 0.00014924675114015175, -0.0010417987242758609, 0.0011972853331627363, -0.0001683002847094646, -0.00029788813509653374, -0.00014381299316952934, -0.0003997775148445339, 0.0010902482705664022, -0.0005535866905002349], [0.0004048584442907096, 0.0012766057911626266, 0.0005269170029379095, 0.00020507314708863333, -0.0005409261393827207, -0.0011152605577117794, -0.0010754449602321285, -0.0006455371289406844, -0.0004993992311672474, -0.0012540997645924174, 0.0023125733376102, 0.001076044084814635, 0.0015660865730282108, -0.0008358530575677019, -0.0015264025587367882, -0.0007766812338087797], [0.0017883286569164763, 0.00099324542922578, 0.00020315978534882383, 0.0006579985290435384, -0.0006411202689981422, -0.0009936787234309204, 0.0009301404292048088, -0.0006343508772441886, 0.0005896894204038786, 0.0018079591645809683, 0.000883369054475522, -0.0004457002149833239, 0.0008858421625283598, -0.00046860569193156286, 0.0008706768022337709, 0.00023411014254255178], [-0.001140343962890115, 0.0012719839923452238, -0.0015809114789910796, 0.0010142690338984979, -0.00046375729277724583, -0.0010744690421812674, 0.0006543326096013345, 0.0014987233714158874, 0.001294584870162366, -0.0008072177474553676, -0.0012863785214436024, -0.0011812163003727255, 0.0008102319490571836, -0.0007241556663504198, 0.00024260817652126888, -0.00045569071297300753], [-0.0011217530542289716, -0.0004547136137432339, -0.00016826988312614637, 0.0019406321449090224, 0.0008260508541056048, -0.0008371773946065817, -8.915404395123212e-05, -0.00039288610123744785, -0.00031993927619329495, -0.0009524264202987003, 0.00129003494390509, -0.0006037829166101115, -0.001104708445736699, -0.0007319370590475378, 0.00013475043868010098, 0.0009610097002457093], [-0.0010479504749857447, 0.0012649659082586693, -0.001300747176372452, 0.0014142260796860227, 0.0006737734937343352, 0.00037229829550440124, 0.0005380755978193941, 0.0015880333469738613, -0.001377172800949971, 0.0007126998055515716, -0.0015661911661850882, 0.0014650695664157856, -0.000482895892922017, 0.0006836751735687501, -0.0011764803300609115, 0.0007695084046173261], [-0.0005286124206741077, 0.0017622374520733473, -0.00022628343497284033, 0.001721071063014133, 0.0004207872887401198, 0.0001062373781034822, 0.0009704078431922284, 0.00033921133786746915, 0.0010443081630447065, -0.0017324060475290112, 0.0006840567871225302, -0.0011795384304890272, 0.0010354048538816038, -0.0004268880429482433, -0.0005172498914410216, -0.0005213753315620804], [0.0018506877852928155, -0.0007220026002858603, 0.0006979160481391189, 0.000745475050843388, -0.0010412711757210457, 0.0013241749708504764, -0.0007502872050426906, 0.0010762745365080178, 0.00038831789287820356, 0.00029906412945700315, 0.0019254174697811747, 0.000729961116073456, 0.0009767792724243466, -0.001295550949980898, 0.0004264878802327509, -0.0007575661144177118], [0.0019481966990446196, 0.0004437383952738975, 0.00026906792616708715, 0.000457851591017149, 0.0008962530583008966, 0.0005917882076739244, -0.0008435872178118012, -0.0007888793672938976, -0.0018552085791855922, 0.0014506446596647285, 0.00036887332311239657, 0.001662132567088295, -0.0012052194072834231, 0.00026059204901416396, -0.001053468462120848, -0.00041282356783737493], [-0.0009736351302132705, 0.001386540770700076, -0.0009354607921653855, -0.00038525510210732686, 0.000793788124880893, 0.0004830257825840669, 0.0005060134641921935, 0.0013729571621233225, 0.0006900626945609881, 0.0006726645446249817, 0.0012708444803967783, 0.0005440082822727234, 0.00029468859323213945, -0.0006195699471768193, 0.0018788855271128836, 0.00014853371873061857], [0.00021111724933091668, 0.0016768130746654868, 0.0014280334893252728, -0.0012549123186544615, 0.0006982320272061483, 0.001228361232264955, 0.0006236286356279896, -0.0013121245062649952, 0.001054492760188849, 0.0004339916588471975, 0.0010150371255397907, 0.0001331692579830319, 0.00019572108548205816, 0.000564425896665099, 0.0007192809763192207, 0.0008581299136917749], [-0.0011088929350020294, -0.0010206640796147028, -0.0014187300162251343, -0.000198577752112646, 0.0008973483148865117, -0.0001432681573080571, -0.0007628765348051182, 0.0010087137902017019, 0.00012220041098736547, -0.0012807994201005858, 0.00148980329649288, -0.0012946302329441002, 0.000632800663569741, 0.00015793174274262152, 0.0003793335890173687, -0.0009284578048479756], [0.000691709263776696, 0.000987050149093107, -0.0006148258019359916, -0.00040223358562118647, -0.0010335141197250106, -0.0013071426500270054, -0.000575229707097273, -0.0015024530885361684, 0.0012531022685808963, 0.0006764756655864427, -0.0014498956590238408, 0.0005885057662814171, 0.0006075908316016372, -0.0004598208507385226, -0.00046074311787236243, -0.0008228937599745721], [0.0007335332556148955, -0.000782794075830193, -0.0010555775273987623, 0.0012687090269006243, -0.0007286394219230689, 0.000793141327347893, 0.0014014449879880717, 0.001022096869372501, -0.00025730218530180607, 0.0006769234472965615, 0.0007981400118962484, 0.001626848740122623, -0.0004515685085633327, 0.0012715903398882863, -0.0005147904098321433, 0.000680687095035768], [-0.0008966721132606018, 0.00023297185074168836, -0.0010034777829815032, -0.001202398652130884, -0.00039419981331375117, 0.0009389891975606092, -0.0005393600227742678, -0.00144148385968097, -0.0004792591127552176, 0.0003687294699037449, -0.0004208336880405547, 0.0009192633843099043, 0.0015514070837317076, -0.0009946521262260265, 9.633948945797918e-05, -0.0005391025008431223], [0.00047266083618424724, -0.00022701109148459404, 0.0012161889726995734, -0.001470632271083263, -0.0005040843671771325, 0.0004340340666272248, -0.0008475011783487388, -0.0003372658337192953, 0.0008414655356569435, -0.00024940463341007927, -0.000751451704949087, 0.0014972201978883791, 0.0009581253529354747, 0.0010432753847692878, 0.0016955195984400828, 0.0023121813702575945], [-0.00028309997554927345, -0.0006202668797564281, -0.0005439718395830568, 0.001393701592970221, -0.0013575723508638057, -0.0002762978075614883, -0.0007182062574181854, -0.0012298390600303042, 0.0004587676500191902, -0.0013569623584641093, -0.0023274609498466626, 0.0002556413976179957, 0.0009468453980611312, 0.0009948706328978035, -0.0009744801594133744, -0.0008719004444303725], [0.0009072588209633263, -0.0010024672286339732, 0.0013351771421565436, 0.00016667137936939703, -0.000983661937781435, -0.00039012345683990865, -0.0005113498847900139, -0.000789775066702768, -0.0006206000908980429, -0.0016083533723030346, 0.0009105199379384674, -0.0009745506778559573, 0.0013074006426342744, -0.001179562921785969, 0.000718392003410981, 0.000654716412407364], [-0.001316881482778999, -0.0014641935681879916, -6.148779573423872e-06, -0.00027193682836622947, 0.0004967327307132624, -0.0007165976258251589, -0.001166497211783127, -0.0005687732514309666, 0.0004199912310512445, 0.000998261964103486, -0.00014013594546058368, -0.000811379888703567, 0.0004986076235159267, 0.0011733434631575363, 0.0005456745395439272, 0.00034661276235662053], [0.0012620435296267288, -0.0009713879381633025, -0.0018289695200578797, 0.0010691715923150421, -0.0009396446528664564, -0.0015889977085580536, -0.0005481562578613547, 0.0011142204373827077, -0.0016372453004886089, 0.001319656199734088, 0.00017748934465515565, -0.0007593628340608137, -0.0012482448188072274, -0.0006822661251437802, -0.0005279618358943358, -0.0011302206799838773], [-0.0009490302471241623, -0.0007476991553547289, -0.0006260211574276703, 0.0011090420597306483, -0.00014771997891874951, -0.0014360090901751144, 0.001749355063295771, -0.0009352118924631015, 0.00040128963873413843, -0.00046471567416130874, -0.0007433198133003135, 0.0017610287979215843, 0.0005002781302533567, 0.0006208054444353559, -0.0002987266113878896, -0.0007327176550039035], [-0.0006354436704771795, -0.002524209016610283, -0.0009291452981124614, 0.0009044121337843838, 0.00018098875577641287, 0.0003937820733985839, -0.0011917691181443592, -0.0015542691469933648, -0.0009494896893775095, 0.0003056107653828139, -0.0008414924620427497, 0.0011603515736833643, -0.00123832612338312, -0.0007315990993898773, 0.000556727761249326, 0.0017635023190374298], [-0.000460391132426075, 0.0008667790919785699, -0.000923796126531442, 0.0001760477105444957, 0.0008883734440491135, -0.0005665251980753423, 0.0006861689983448033, -0.0007141140621988394, -0.0006760350754174418, -0.0003935927906971804, 0.0006471797098812474, -0.0008850966115413516, -0.0002236521768276322, -0.0008591263949343364, 0.000995260681008318, -0.001711063802937321], [-0.0012185064950406429, 0.0016138707438387247, -0.0006062454697174284, 0.0011267945920819112, 0.0010102914280927782, 0.0009524035922184768, -0.00022993450957339718, -0.0007430565664422115, 0.0011009061855394254, 0.001042921383651338, -0.00023565645164462472, 0.0008318718033342497, 0.0009027261873521223, 0.0002222677748563374, 0.000370317608790644, 0.001215601023255489], [-0.0018131500291053053, 0.0006975973409552753, 0.0012560447740191433, 0.0007145044340072626, -0.0012559476500127657, 0.0011762279974628796, 0.0004947131821749755, 0.0008181591826964606, 0.002027551615927081, 0.0004407814140077482, 0.0005513018773798902, -0.0013972521799401213, 0.0005656513159074284, -0.0011237029756095232, 0.0016625667403225455, 0.0005670029886223401], [0.0009029601286305861, 0.0004886059809793017, -0.00031888678092641804, 0.00030787790243853294, -0.00022387080676724598, 0.0006901459617377684, -0.0015707450861404898, -0.00018804120637696945, -0.00043586290552244096, 0.000708401277951845, 0.0003400630267562349, 0.0009289976717821328, -0.00047310512306967617, -0.0010634939739264267, 0.0003544989992864241, 0.0011412398739758093], [0.001062423731531893, 0.0008947526409705873, -0.0003243398741488205, 0.001103125742122817, 